{"learner":{"attributes":{"scikit_learn":"{\"_estimator_type\": \"classifier\"}"},"feature_names":[],"feature_types":[],"gradient_booster":{"model":{"cats":{"enc":[],"feature_segments":[],"sorted_idx":[]},"gbtree_model_param":{"num_parallel_tree":"1","num_trees":"300"},"iteration_indptr":[0,1,2,3,4,5,6,7,8,9,10,11,12,13,14,15,16,17,18,19,20,21,22,23,24,25,26,27,28,29,30,31,32,33,34,35,36,37,38,39,40,41,42,43,44,45,46,47,48,49,50,51,52,53,54,55,56,57,58,59,60,61,62,63,64,65,66,67,68,69,70,71,72,73,74,75,76,77,78,79,80,81,82,83,84,85,86,87,88,89,90,91,92,93,94,95,96,97,98,99,100,101,102,103,104,105,106,107,108,109,110,111,112,113,114,115,116,117,118,119,120,121,122,123,124,125,126,127,128,129,130,131,132,133,134,135,136,137,138,139,140,141,142,143,144,145,146,147,148,149,150,151,152,153,154,155,156,157,158,159,160,161,162,163,164,165,166,167,168,169,170,171,172,173,174,175,176,177,178,179,180,181,182,183,184,185,186,187,188,189,190,191,192,193,194,195,196,197,198,199,200,201,202,203,204,205,206,207,208,209,210,211,212,213,214,215,216,217,218,219,220,221,222,223,224,225,226,227,228,229,230,231,232,233,234,235,236,237,238,239,240,241,242,243,244,245,246,247,248,249,250,251,252,253,254,255,256,257,258,259,260,261,262,263,264,265,266,267,268,269,270,271,272,273,274,275,276,277,278,279,280,281,282,283,284,285,286,287,288,289,290,291,292,293,294,295,296,297,298,299,300],"tree_info":[0,0,0,0,0,0,0,0,0,0,0,0,0,0,0,0,0,0,0,0,0,0,0,0,0,0,0,0,0,0,0,0,0,0,0,0,0,0,0,0,0,0,0,0,0,0,0,0,0,0,0,0,0,0,0,0,0,0,0,0,0,0,0,0,0,0,0,0,0,0,0,0,0,0,0,0,0,0,0,0,0,0,0,0,0,0,0,0,0,0,0,0,0,0,0,0,0,0,0,0,0,0,0,0,0,0,0,0,0,0,0,0,0,0,0,0,0,0,0,0,0,0,0,0,0,0,0,0,0,0,0,0,0,0,0,0,0,0,0,0,0,0,0,0,0,0,0,0,0,0,0,0,0,0,0,0,0,0,0,0,0,0,0,0,0,0,0,0,0,0,0,0,0,0,0,0,0,0,0,0,0,0,0,0,0,0,0,0,0,0,0,0,0,0,0,0,0,0,0,0,0,0,0,0,0,0,0,0,0,0,0,0,0,0,0,0,0,0,0,0,0,0,0,0,0,0,0,0,0,0,0,0,0,0,0,0,0,0,0,0,0,0,0,0,0,0,0,0,0,0,0,0,0,0,0,0,0,0,0,0,0,0,0,0,0,0,0,0,0,0,0,0,0,0,0,0,0,0,0,0,0,0,0,0,0,0,0,0,0,0,0,0,0,0,0,0,0,0,0,0],"trees":[{"base_weights":[8.804159E-3,-1.3980165E0,3.023833E0,-1.4467643E0,-5.214318E-1,1.1227696E0,3.1022599E0,-1.367307E-2,-7.248188E-2,8.250852E-2,-8.0389875E-1,1.2674816E-1,-6.788845E-1,3.1202006E0,1.0409571E-2,-1.2261739E0,5.9780455E-1,-5.120944E-2,1.0409571E-2,3.4492213E-2,3.132167E0,-6.760382E-2,1.0409571E-2,8.241667E-2,-4.607838E-2,7.308981E-2,1.5750913E-1],"categories":[],"categories_nodes":[],"categories_segments":[],"categories_sizes":[],"default_left":[0,0,0,0,0,0,0,0,0,0,0,0,0,0,0,0,0,0,0,0,0,0,0,0,0,0,0],"id":0,"left_children":[1,3,5,7,9,11,13,-1,-1,-1,15,-1,17,19,-1,21,23,-1,-1,-1,25,-1,-1,-1,-1,-1,-1],"loss_changes":[2.2716714E3,1.4850403E1,2.1921143E1,7.678833E-1,1.4086511E1,2.2884438E1,7.817505E0,0E0,0E0,0E0,1.2026486E1,0E0,1.5744092E0,2.550537E0,0E0,2.9886074E0,9.642626E0,0E0,0E0,0E0,2.376709E-1,0E0,0E0,0E0,0E0,0E0,0E0],"parents":[2147483647,0,0,1,1,2,2,3,3,4,4,5,5,6,6,10,10,12,12,13,13,15,15,16,16,20,20],"right_children":[2,4,6,8,10,12,14,-1,-1,-1,16,-1,18,20,-1,22,24,-1,-1,-1,26,-1,-1,-1,-1,-1,-1],"split_conditions":[5.389595E-1,2.0516513E-1,7.279766E-1,3.921569E-3,1.9215687E-1,4E-1,9.1764706E-1,-1.367307E-2,-7.248188E-2,8.250852E-2,7.019608E-1,1.2674816E-1,6.3529414E-1,3.529412E-2,1.0409571E-2,7.7254903E-1,7.411765E-1,-5.120944E-2,1.0409571E-2,3.4492213E-2,1.3333334E-1,-6.760382E-2,1.0409571E-2,8.241667E-2,-4.607838E-2,7.308981E-2,1.5750913E-1],"split_indices":[3072,3072,3072,8,892,2657,492,0,0,0,1830,0,16,393,0,950,1833,0,0,0,1174,0,0,0,0,0,0],"split_type":[0,0,0,0,0,0,0,0,0,0,0,0,0,0,0,0,0,0,0,0,0,0,0,0,0,0,0],"sum_hessian":[5.3357214E2,3.6418076E2,1.693914E2,3.4437897E2,1.980179E1,7.3180532E0,1.6207335E2,1.0761843E0,3.433028E2,1.7218949E0,1.8079897E1,3.8742635E0,3.4437897E0,1.6099716E2,1.0761843E0,1.3990396E1,4.0895004E0,2.3676054E0,1.0761843E0,1.0761843E0,1.5992099E2,1.2914211E1,1.0761843E0,2.3676054E0,1.7218949E0,2.5828424E0,1.5733815E2],"tree_param":{"num_deleted":"0","num_feature":"3073","num_nodes":"27","size_leaf_vector":"1"}},{"base_weights":[-5.9991595E-3,-1.3749748E0,2.7077599E0,-1.4120373E0,-6.251237E-1,1.1374984E0,2.7907689E0,-1.226795E-2,-7.074472E-2,7.437948E-2,-9.9234533E-1,1.1329893E-1,-8.89752E-2,2.8068893E0,2.0826936E-2,-1.212283E0,4.5320112E-2,8.037371E-2,-7.727944E-1,2.9459521E-2,2.8182037E0,-6.656439E-2,2.2484583E-3,-5.455726E-2,1.0826285E-2,3.0228917E-2,1.4146782E-1],"categories":[],"categories_nodes":[],"categories_segments":[],"categories_sizes":[],"default_left":[0,0,0,0,0,0,0,0,0,0,0,0,0,0,0,0,0,0,0,0,0,0,0,0,0,0,0],"id":1,"left_children":[1,3,5,7,9,11,13,-1,-1,-1,15,-1,17,19,-1,21,-1,-1,23,-1,25,-1,-1,-1,-1,-1,-1],"loss_changes":[2.0248115E3,9.185303E0,2.0646606E1,8.009033E-1,1.6105991E1,1.5237756E1,5.447876E0,0E0,0E0,0E0,8.057989E0,0E0,8.397663E0,2.643921E0,0E0,2.3583603E0,0E0,0E0,1.8335128E0,0E0,2.496582E0,0E0,0E0,0E0,0E0,0E0,0E0],"parents":[2147483647,0,0,1,1,2,2,3,3,4,4,5,5,6,6,10,10,12,12,13,13,15,15,18,18,20,20],"right_children":[2,4,6,8,10,12,14,-1,-1,-1,16,-1,18,20,-1,22,-1,-1,24,-1,26,-1,-1,-1,-1,-1,-1],"split_conditions":[5.389595E-1,2.0516513E-1,7.279766E-1,2.3529412E-2,1.254902E-1,4.627451E-1,9.490196E-1,-1.226795E-2,-7.074472E-2,7.437948E-2,7.8431374E-1,1.1329893E-1,3.647059E-1,3.137255E-2,2.0826936E-2,7.176471E-1,4.5320112E-2,8.037371E-2,6.54902E-1,2.9459521E-2,1.5686275E-2,-6.656439E-2,2.2484583E-3,-5.455726E-2,1.0826285E-2,3.0228917E-2,1.4146782E-1],"split_indices":[3072,3072,3072,93,800,2854,2846,0,0,0,1355,0,973,1260,0,1734,0,0,1126,0,2931,0,0,0,0,0,0],"split_type":[0,0,0,0,0,0,0,0,0,0,0,0,0,0,0,0,0,0,0,0,0,0,0,0,0,0,0],"sum_hessian":[5.430243E2,3.6127155E2,1.8175276E2,3.434147E2,1.7856852E1,9.863863E0,1.718889E2,1.0511844E0,3.4236353E2,2.1924186E0,1.56644335E1,4.695745E0,5.168118E0,1.7054868E2,1.3402132E0,1.4362336E1,1.3020978E0,1.0966843E0,4.0714335E0,1.1350942E0,1.6941359E2,1.3066633E1,1.295703E0,3.0023808E0,1.0690526E0,1.1260424E0,1.6828755E2],"tree_param":{"num_deleted":"0","num_feature":"3073","num_nodes":"27","size_leaf_vector":"1"}},{"base_weights":[-5.7934774E-3,-1.3369519E0,2.4728892E0,-1.3827463E0,-5.1530856E-1,9.9599093E-1,2.546391E0,-1.6282922E-2,-6.928482E-2,7.766248E-2,-7.196349E-1,1.0507083E-1,-2.1217386E-1,2.5612547E0,5.85593E-3,-1.0043797E0,4.3203035E-1,-5.352063E-2,8.745849E-1,2.680854E-2,2.571568E0,3.5897944E-2,-6.2029053E-2,6.8778716E-2,-4.3278303E-2,7.979999E-2,-1.3867035E-2,2.848964E-2,1.2906973E-1],"categories":[],"categories_nodes":[],"categories_segments":[],"categories_sizes":[],"default_left":[0,0,0,0,0,0,0,0,0,0,0,0,0,0,0,0,0,0,0,0,0,0,0,0,0,0,0,0,0],"id":2,"left_children":[1,3,5,7,9,11,13,-1,-1,-1,15,-1,17,19,-1,21,23,-1,25,-1,27,-1,-1,-1,-1,-1,-1,-1,-1],"loss_changes":[1.7765E3,1.2467651E1,1.7885376E1,5.81604E-1,9.607655E0,1.4550387E1,6.147461E0,0E0,0E0,0E0,6.6529284E0,0E0,6.48971E0,2.3269043E0,0E0,7.198723E0,6.6494994E0,0E0,3.0833483E0,0E0,1.99646E0,0E0,0E0,0E0,0E0,0E0,0E0,0E0,0E0],"parents":[2147483647,0,0,1,1,2,2,3,3,4,4,5,5,6,6,10,10,12,12,13,13,15,15,16,16,18,18,20,20],"right_children":[2,4,6,8,10,12,14,-1,-1,-1,16,-1,18,20,-1,22,24,-1,26,-1,28,-1,-1,-1,-1,-1,-1,-1,-1],"split_conditions":[5.389595E-1,2.0516513E-1,7.279766E-1,3.921569E-3,1.254902E-1,4.4313726E-1,9.2156863E-1,-1.6282922E-2,-6.928482E-2,7.766248E-2,6.4705884E-1,1.0507083E-1,6.431373E-1,3.137255E-2,5.85593E-3,1.9215687E-1,6.3529414E-1,-5.352063E-2,7.176471E-1,2.680854E-2,3.529412E-2,3.5897944E-2,-6.2029053E-2,6.8778716E-2,-4.3278303E-2,7.979999E-2,-1.3867035E-2,2.848964E-2,1.2906973E-1],"split_indices":[3072,3072,3072,158,1517,2857,588,0,0,0,2117,0,1725,1841,0,3030,2395,0,84,0,489,0,0,0,0,0,0,0,0],"split_type":[0,0,0,0,0,0,0,0,0,0,0,0,0,0,0,0,0,0,0,0,0,0,0,0,0,0,0,0,0],"sum_hessian":[5.364098E2,3.492879E2,1.8712189E2,3.3020117E2,1.9086744E1,9.560941E0,1.7756094E2,1.228936E0,3.2897223E2,1.1223631E0,1.7964382E1,4.6066666E0,4.954274E0,1.7642714E2,1.1338134E0,1.4505774E1,3.4586086E0,2.776583E0,2.1776912E0,1.1624357E0,1.752647E2,1.5034282E0,1.3002345E1,1.9677038E0,1.4909049E0,1.102023E0,1.0756683E0,1.1443175E0,1.7412038E2],"tree_param":{"num_deleted":"0","num_feature":"3073","num_nodes":"29","size_leaf_vector":"1"}},{"base_weights":[-1.0050091E-2,-1.3074557E0,2.3130705E0,-1.3457657E0,2.1758761E-2,1.3958185E0,2.3969793E0,-1.6486191E-3,-6.756955E-2,8.4309176E-2,-5.57195E-1,1.7410493E0,-4.9629748E-2,4.235541E-2,1.2035071E-1,-1.0534428E0,5.127537E-2,7.342734E-2,2.0104632E0,-9.987214E-3,-5.8131464E-2,4.873677E-2,-4.3143947E-2,1.1030411E-1,1.821707E-3],"categories":[],"categories_nodes":[],"categories_segments":[],"categories_sizes":[],"default_left":[0,0,0,0,0,0,0,0,0,0,0,0,0,0,0,0,0,0,0,0,0,0,0,0,0],"id":3,"left_children":[1,3,5,7,9,11,13,-1,-1,-1,15,17,-1,-1,-1,19,-1,21,23,-1,-1,-1,-1,-1,-1],"loss_changes":[1.6128647E3,1.7513672E1,1.1413208E1,2.420166E0,1.11567745E1,1.6954285E1,6.716919E-1,0E0,0E0,0E0,7.849181E0,7.2641373E0,0E0,0E0,0E0,4.2532158E-1,0E0,3.6532888E0,5.389374E0,0E0,0E0,0E0,0E0,0E0,0E0],"parents":[2147483647,0,0,1,1,2,2,3,3,4,4,5,5,6,6,10,10,11,11,15,15,17,17,18,18],"right_children":[2,4,6,8,10,12,14,-1,-1,-1,16,18,-1,-1,-1,20,-1,22,24,-1,-1,-1,-1,-1,-1],"split_conditions":[5.389595E-1,3.1251493E-1,8.20247E-1,3.921569E-3,3.764706E-1,7.058824E-1,1.1372549E-1,-1.6486191E-3,-6.756955E-2,8.4309176E-2,6.901961E-1,3.8431373E-1,-4.9629748E-2,4.235541E-2,1.2035071E-1,4.392157E-1,5.127537E-2,3.8039216E-1,7.4509805E-1,-9.987214E-3,-5.8131464E-2,4.873677E-2,-4.3143947E-2,1.1030411E-1,1.821707E-3],"split_indices":[3072,3072,3072,2699,732,694,1833,0,0,0,2116,565,0,0,0,1534,0,342,1671,0,0,0,0,0,0],"split_type":[0,0,0,0,0,0,0,0,0,0,0,0,0,0,0,0,0,0,0,0,0,0,0,0,0],"sum_hessian":[5.331157E2,3.423557E2,1.9076003E2,3.327528E2,9.602924E0,1.74659E1,1.7329413E2,1.4489765E0,3.313038E2,1.9846939E0,7.618231E0,1.5496953E1,1.9689482E0,1.6642958E0,1.7162984E2,6.0543303E0,1.5639004E0,2.3323956E0,1.3164557E1,1.0073701E0,5.0469604E0,1.167496E0,1.1648996E0,1.1870666E1,1.2938924E0],"tree_param":{"num_deleted":"0","num_feature":"3073","num_nodes":"25","size_leaf_vector":"1"}},{"base_weights":[4.8664503E-2,-1.2805715E0,2.166366E0,-1.331453E0,-3.9055288E-1,1.4273849E0,1.1196724E-1,-1.3482282E-2,-6.67302E-2,1.5071222E0,-8.584349E-1,1.7182709E0,-4.8221774E-2,9.033113E-3,9.607097E-2,-1.0749918E0,3.759336E-2,1.8672514E0,-1.80881E-2,-5.9651192E-2,1.0541819E-2,1.0324811E-1,1.8197201E-2],"categories":[],"categories_nodes":[],"categories_segments":[],"categories_sizes":[],"default_left":[0,0,0,0,0,0,0,0,0,0,0,0,0,0,0,0,0,0,0,0,0,0,0],"id":4,"left_children":[1,3,5,7,9,11,-1,-1,-1,13,15,17,-1,-1,-1,19,-1,21,-1,-1,-1,-1,-1],"loss_changes":[1.494173E3,1.42491455E1,7.842285E0,6.709595E-1,1.8209463E1,1.637563E1,0E0,0E0,0E0,1.923109E0,6.3600864E0,6.6316643E0,0E0,0E0,0E0,2.4438095E0,0E0,4.6276207E0,0E0,0E0,0E0,0E0,0E0],"parents":[2147483647,0,0,1,1,2,2,3,3,4,4,5,5,9,9,10,10,11,11,15,15,17,17],"right_children":[2,4,6,8,10,12,-1,-1,-1,14,16,18,-1,-1,-1,20,-1,22,-1,-1,-1,-1,-1],"split_conditions":[5.389595E-1,2.0516513E-1,8.383948E-1,3.9215688E-2,1.764706E-1,7.254902E-1,1.1196724E-1,-1.3482282E-2,-6.67302E-2,1.4509805E-1,8.27451E-1,7.764706E-1,-4.8221774E-2,9.033113E-3,9.607097E-2,7.8039217E-1,3.759336E-2,5.8431375E-1,-1.80881E-2,-5.9651192E-2,1.0541819E-2,1.0324811E-1,1.8197201E-2],"split_indices":[3072,3072,3072,6,1946,2763,0,0,0,1590,2336,236,0,0,0,1639,0,2756,0,0,0,0,0],"split_type":[0,0,0,0,0,0,0,0,0,0,0,0,0,0,0,0,0,0,0,0,0,0,0],"sum_hessian":[5.2881836E2,3.25134E2,2.0368434E2,3.0708237E2,1.805161E1,2.0154913E1,1.8352943E2,1.1647676E0,3.059176E2,3.1310947E0,1.4920515E1,1.8220587E1,1.9343274E0,1.0869769E0,2.0441177E0,1.3444851E1,1.475664E0,1.7098236E1,1.122349E0,1.2380559E1,1.0642926E0,1.4780706E1,2.3175306E0],"tree_param":{"num_deleted":"0","num_feature":"3073","num_nodes":"23","size_leaf_vector":"1"}},{"base_weights":[9.323596E-3,-1.2637376E0,2.0326447E0,-1.3090748E0,-4.506005E-1,8.44608E-1,2.0840285E0,-1.1941505E-2,-6.561518E-2,7.6966107E-1,-9.063121E-1,8.712513E-2,-1.6839379E-1,1.7850613E-2,2.0932686E0,1.3781265E0,-3.82904E-2,-1.1607417E0,4.1844167E-2,-5.1693477E-2,4.3715257E-2,2.101581E0,2.1103574E-2,-1.14576295E-2,9.72772E-2,-6.1366092E-2,-9.953417E-3,1.0549759E-1,2.1453125E-2],"categories":[],"categories_nodes":[],"categories_segments":[],"categories_sizes":[],"default_left":[0,0,0,0,0,0,0,0,0,0,0,0,0,0,0,0,0,0,0,0,0,0,0,0,0,0,0,0,0],"id":5,"left_children":[1,3,5,7,9,11,13,-1,-1,15,17,-1,19,-1,21,23,-1,25,-1,-1,-1,27,-1,-1,-1,-1,-1,-1,-1],"loss_changes":[1.3353247E3,1.1140839E1,1.0461487E1,7.262573E-1,1.0890463E1,9.372387E0,2.3042603E0,0E0,0E0,6.217062E0,7.0941696E0,0E0,5.959379E0,0E0,1.7525024E0,4.3801813E0,0E0,5.538311E-1,0E0,0E0,0E0,1.7381592E0,0E0,0E0,0E0,0E0,0E0,0E0,0E0],"parents":[2147483647,0,0,1,1,2,2,3,3,4,4,5,5,6,6,9,9,10,10,12,12,14,14,15,15,17,17,21,21],"right_children":[2,4,6,8,10,12,14,-1,-1,16,18,-1,20,-1,22,24,-1,26,-1,-1,-1,28,-1,-1,-1,-1,-1,-1,-1],"split_conditions":[5.389595E-1,2.0516513E-1,7.279766E-1,3.921569E-3,3.647059E-1,4.117647E-1,1.1764706E-2,-1.1941505E-2,-6.561518E-2,5.764706E-1,8E-1,8.712513E-2,6.431373E-1,1.7850613E-2,9.5686275E-1,3.137255E-1,-3.82904E-2,6.627451E-1,4.1844167E-2,-5.1693477E-2,4.3715257E-2,9.5686275E-1,2.1103574E-2,-1.14576295E-2,9.72772E-2,-6.1366092E-2,-9.953417E-3,1.0549759E-1,2.1453125E-2],"split_indices":[3072,3072,3072,35,706,2855,2148,0,0,1800,1355,0,1725,0,2463,2485,0,3018,0,0,0,2846,0,0,0,0,0,0,0],"split_type":[0,0,0,0,0,0,0,0,0,0,0,0,0,0,0,0,0,0,0,0,0,0,0,0,0,0,0,0,0],"sum_hessian":[5.16412E2,3.1720438E2,1.9920761E2,2.998747E2,1.7329693E1,8.981611E0,1.90226E2,1.1274588E0,2.9874722E2,4.52477E0,1.2804923E1,4.379561E0,4.6020503E0,1.2233064E0,1.890027E2,3.3139942E0,1.2107757E0,1.1465584E1,1.339339E0,2.5193617E0,2.0826886E0,1.87811E2,1.1916955E0,1.0202265E0,2.2937677E0,1.0464829E1,1.0007541E0,1.8661546E2,1.1955302E0],"tree_param":{"num_deleted":"0","num_feature":"3073","num_nodes":"29","size_leaf_vector":"1"}},{"base_weights":[-7.2479914E-3,-1.2548198E0,1.9197848E0,-1.2810526E0,-1.6878389E-1,1.1252702E0,1.9943655E0,3.0401496E-5,-1.2870077E0,-8.266301E-1,6.322484E-2,1.5009379E0,-5.243151E-1,1.6915588E-2,1.00190066E-1,-1.1080234E-2,-1.2902317E0,-5.462509E-2,1.4850619E-2,4.1889364E-1,1.7749509E0,2.4872536E-2,-5.216037E-2,-1.2844308E-2,-6.466537E-2,6.240973E-2,-4.465444E-2,9.6264765E-2,1.574731E-2],"categories":[],"categories_nodes":[],"categories_segments":[],"categories_sizes":[],"default_left":[0,0,0,0,0,0,0,0,0,0,0,0,0,0,0,0,0,0,0,0,0,0,0,0,0,0,0,0,0],"id":6,"left_children":[1,3,5,7,9,11,13,-1,15,17,-1,19,21,-1,-1,-1,23,-1,-1,25,27,-1,-1,-1,-1,-1,-1,-1,-1],"loss_changes":[1.2141936E3,8.517792E0,9.516663E0,2.2843628E0,8.948625E0,1.2763817E1,2.137146E0,0E0,7.36969E-1,2.2214904E0,0E0,4.0006485E0,2.8125873E0,0E0,0E0,0E0,6.107483E-1,0E0,0E0,6.0567226E0,2.128376E0,0E0,0E0,0E0,0E0,0E0,0E0,0E0,0E0],"parents":[2147483647,0,0,1,1,2,2,3,3,4,4,5,5,6,6,8,8,9,9,11,11,12,12,16,16,19,19,20,20],"right_children":[2,4,6,8,10,12,14,-1,16,18,-1,20,22,-1,-1,-1,24,-1,-1,26,28,-1,-1,-1,-1,-1,-1,-1,-1],"split_conditions":[5.389595E-1,3.5693714E-1,8.20247E-1,3.921569E-3,7.411765E-1,7.058824E-1,2.3529412E-2,3.0401496E-5,3.921569E-3,7.529412E-1,6.322484E-2,3.764706E-1,3.4509805E-1,1.6915588E-2,1.00190066E-1,-1.1080234E-2,7.843138E-3,-5.462509E-2,1.4850619E-2,5.7254905E-1,7.372549E-1,2.4872536E-2,-5.216037E-2,-1.2844308E-2,-6.466537E-2,6.240973E-2,-4.465444E-2,9.6264765E-2,1.574731E-2],"split_indices":[3072,3072,3072,2894,1830,1081,2853,0,665,2220,0,667,2642,0,0,0,403,0,0,2787,831,0,0,0,0,0,0,0,0],"split_type":[0,0,0,0,0,0,0,0,0,0,0,0,0,0,0,0,0,0,0,0,0,0,0,0,0,0,0,0,0],"sum_hessian":[5.030467E2,3.0556866E2,1.9747803E2,2.9818652E2,7.382158E0,1.8326986E1,1.7915103E2,1.3832599E0,2.9680325E2,5.3499165E0,2.0322413E0,1.5000879E1,3.326107E0,1.2237742E0,1.7792726E2,1.1058134E0,2.9569745E2,4.3486667E0,1.0012498E0,3.5421379E0,1.1458741E1,1.1341472E0,2.1919599E0,1.1283432E0,2.945691E2,2.2000875E0,1.3420504E0,1.0099999E1,1.3587414E0],"tree_param":{"num_deleted":"0","num_feature":"3073","num_nodes":"29","size_leaf_vector":"1"}},{"base_weights":[-3.3637624E-2,-1.2289262E0,1.7962952E0,-1.2727469E0,-4.160969E-1,3.3387342E-1,1.8639734E0,-1.0390626E-2,-6.38042E-2,1.2092723E0,-8.8636726E-1,1.4278044E0,-5.9208816E-1,1.4692679E-2,1.8767782E0,9.226207E-2,-1.3421434E-2,-1.0663142E0,1.9939689E-2,2.253954E-2,8.046835E-2,-5.71431E-2,3.7784643E-2,1.43399285E-2,1.8858701E0,-6.0024243E-2,-1.1210057E-2,9.473627E-2,1.4898697E-2],"categories":[],"categories_nodes":[],"categories_segments":[],"categories_sizes":[],"default_left":[0,0,0,0,0,0,0,0,0,0,0,0,0,0,0,0,0,0,0,0,0,0,0,0,0,0,0,0,0],"id":7,"left_children":[1,3,5,7,9,11,13,-1,-1,15,17,19,21,-1,23,-1,-1,25,-1,-1,-1,-1,-1,-1,27,-1,-1,-1,-1],"loss_changes":[1.0931621E3,1.02378845E1,1.8922363E1,7.523804E-1,1.4027222E1,1.092684E1,3.2387695E0,0E0,0E0,4.4672017E0,3.5987835E0,1.3585186E-1,5.389618E0,0E0,2.159668E0,0E0,0E0,1.121666E0,0E0,0E0,0E0,0E0,0E0,0E0,2.0446777E0,0E0,0E0,0E0,0E0],"parents":[2147483647,0,0,1,1,2,2,3,3,4,4,5,5,6,6,9,9,10,10,11,11,12,12,14,14,17,17,24,24],"right_children":[2,4,6,8,10,12,14,-1,-1,16,18,20,22,-1,24,-1,-1,26,-1,-1,-1,-1,-1,-1,28,-1,-1,-1,-1],"split_conditions":[4.818302E-1,2.0516513E-1,6.6733015E-1,3.921569E-3,3.9607844E-1,4.3137255E-1,1.05882354E-1,-1.0390626E-2,-6.38042E-2,4.509804E-1,7.6862746E-1,3.9215687E-1,6.862745E-1,1.4692679E-2,3.137255E-2,9.226207E-2,-1.3421434E-2,6.509804E-1,1.9939689E-2,2.253954E-2,8.046835E-2,-5.71431E-2,3.7784643E-2,1.43399285E-2,9.372549E-1,-6.0024243E-2,-1.1210057E-2,9.473627E-2,1.4898697E-2],"split_indices":[3072,3072,3072,35,496,2956,1270,0,0,546,2336,76,2977,0,1260,0,0,565,0,0,0,0,0,0,150,0,0,0,0],"split_type":[0,0,0,0,0,0,0,0,0,0,0,0,0,0,0,0,0,0,0,0,0,0,0,0,0,0,0,0,0],"sum_hessian":[4.9776822E2,3.012948E2,1.9647343E2,2.8534555E2,1.5949228E1,8.952685E0,1.8752075E2,1.0890235E0,2.8425653E2,3.2264361E0,1.2722792E1,3.8556504E0,5.097035E0,1.7106628E0,1.8581009E2,2.0817664E0,1.1446697E0,1.130953E1,1.4132617E0,1.1500282E0,2.7056222E0,3.726311E0,1.3707237E0,1.2415049E0,1.8456859E2,9.388184E0,1.9213463E0,1.8335286E2,1.2157215E0],"tree_param":{"num_deleted":"0","num_feature":"3073","num_nodes":"29","size_leaf_vector":"1"}},{"base_weights":[6.1878166E-3,-1.2339818E0,1.7066272E0,-1.2462606E0,-2.9194245E-1,5.624786E-1,1.794778E0,-8.151596E-3,-1.2496699E0,-4.851774E-2,5.4376066E-2,1.4199338E0,-4.3227166E-1,1.8066572E0,1.387764E-2,-1.7823705E-2,-1.2528838E0,-4.8058713E-3,1.7315273E0,6.7098334E-2,-9.206251E-1,1.1931205E-2,1.81556E0,-2.0250382E-2,-6.279427E-2,2.2569269E-2,9.462848E-2,-5.7575684E-2,1.1016002E-2,1.2808884E-2,9.121996E-2],"categories":[],"categories_nodes":[],"categories_segments":[],"categories_sizes":[],"default_left":[0,0,0,0,0,0,0,0,0,0,0,0,0,0,0,0,0,0,0,0,0,0,0,0,0,0,0,0,0,0,0],"id":8,"left_children":[1,3,5,7,9,11,13,-1,15,-1,-1,17,19,21,-1,-1,23,-1,25,-1,27,-1,29,-1,-1,-1,-1,-1,-1,-1,-1],"loss_changes":[1.039314E3,2.9326477E0,1.9953491E1,8.3410645E-1,5.709044E0,1.4537865E1,2.9684448E0,0E0,3.5714722E-1,0E0,0E0,4.418272E0,8.447694E0,2.230896E0,0E0,0E0,2.003479E-1,0E0,6.9576645E-1,0E0,2.1294255E0,0E0,2.1463013E0,0E0,0E0,0E0,0E0,0E0,0E0,0E0,0E0],"parents":[2147483647,0,0,1,1,2,2,3,3,4,4,5,5,6,6,8,8,11,11,12,12,13,13,16,16,18,18,20,20,22,22],"right_children":[2,4,6,8,10,12,14,-1,16,-1,-1,18,20,22,-1,-1,24,-1,26,-1,28,-1,30,-1,-1,-1,-1,-1,-1,-1,-1],"split_conditions":[4.0630662E-1,3.1251493E-1,7.279766E-1,3.921569E-3,6.3529414E-1,4.7843137E-1,9.1764706E-1,-8.151596E-3,3.921569E-3,-4.851774E-2,5.4376066E-2,2.8235295E-1,2.2745098E-1,7.843138E-3,1.387764E-2,-1.7823705E-2,3.921569E-3,-4.8058713E-3,3.0588236E-1,6.7098334E-2,7.8039217E-1,1.1931205E-2,5.490196E-2,-2.0250382E-2,-6.279427E-2,2.2569269E-2,9.462848E-2,-5.7575684E-2,1.1016002E-2,1.2808884E-2,9.121996E-2],"split_indices":[3072,3072,3072,182,2559,2851,523,0,2953,0,0,1066,1410,2262,0,0,2894,0,328,0,420,0,2221,0,0,0,0,0,0,0,0],"split_type":[0,0,0,0,0,0,0,0,0,0,0,0,0,0,0,0,0,0,0,0,0,0,0,0,0,0,0,0,0,0,0],"sum_hessian":[4.9083972E2,2.8399207E2,2.0684764E2,2.800193E2,3.9727907E0,1.5324526E1,1.9152312E2,1.0316944E0,2.7898758E2,2.8618972E0,1.1108935E0,8.000674E0,7.323851E0,1.8984595E2,1.677166E0,1.4015161E0,2.7758606E2,1.481926E0,6.5187483E0,1.2034936E0,6.1203575E0,1.2287694E0,1.8861719E2,1.4587556E0,2.7612732E2,1.1533726E0,5.3653755E0,5.0825577E0,1.0378002E0,1.2321312E0,1.8738506E2],"tree_param":{"num_deleted":"0","num_feature":"3073","num_nodes":"31","size_leaf_vector":"1"}},{"base_weights":[-6.2203975E-3,-1.177913E0,1.6674151E0,-1.2341443E0,-3.2591373E-1,9.312142E-1,1.7351958E0,-4.9259835E-1,-6.208378E-2,1.2345217E0,-7.2471875E-1,1.403458E0,-1.1867315E-1,9.146251E-3,1.7451619E0,1.8032057E-2,-4.3322217E-2,8.449871E-2,4.335404E-3,-9.695031E-1,2.3632127E-1,1.5613378E0,-4.090473E-3,6.0082823E-2,-7.335692E-1,2.6619611E-2,1.7507141E0,8.845485E-3,-5.8755506E-2,6.5756015E-2,-4.0347945E-2,2.8008139E-2,8.236843E-2,1.7830456E-2,-5.688125E-2,2.7687231E-2,8.780415E-2],"categories":[],"categories_nodes":[],"categories_segments":[],"categories_sizes":[],"default_left":[0,0,0,0,0,0,0,0,0,0,0,0,0,0,0,0,0,0,0,0,0,0,0,0,0,0,0,0,0,0,0,0,0,0,0,0,0],"id":9,"left_children":[1,3,5,7,9,11,13,15,-1,17,19,21,23,-1,25,-1,-1,-1,-1,27,29,31,-1,-1,33,-1,35,-1,-1,-1,-1,-1,-1,-1,-1,-1,-1],"loss_changes":[9.174905E2,1.278244E1,7.998352E0,8.28125E-1,1.2343577E1,9.29003E0,2.3921509E0,1.6680104E0,0E0,2.0045314E0,3.824337E0,3.1222935E0,6.2650666E0,0E0,2.3980713E-1,0E0,0E0,0E0,0E0,3.1251078E0,5.4579005E0,7.574272E-2,0E0,0E0,2.6720624E0,0E0,1.3806152E-1,0E0,0E0,0E0,0E0,0E0,0E0,0E0,0E0,0E0,0E0],"parents":[2147483647,0,0,1,1,2,2,3,3,4,4,5,5,6,6,7,7,9,9,10,10,11,11,12,12,14,14,19,19,20,20,21,21,24,24,26,26],"right_children":[2,4,6,8,10,12,14,16,-1,18,20,22,24,-1,26,-1,-1,-1,-1,28,30,32,-1,-1,34,-1,36,-1,-1,-1,-1,-1,-1,-1,-1,-1,-1],"split_conditions":[5.389595E-1,2.0516513E-1,8.20247E-1,1.1764706E-2,1.764706E-1,5.568628E-1,8.627451E-2,2.3921569E-1,-6.208378E-2,4.509804E-1,5.921569E-1,7.764706E-1,4.0392157E-1,9.146251E-3,3.9215688E-2,1.8032057E-2,-4.3322217E-2,8.449871E-2,4.335404E-3,2.9803923E-1,6.784314E-1,5.7373416E-1,-4.090473E-3,6.0082823E-2,4.9411765E-1,2.6619611E-2,1.4901961E-1,8.845485E-3,-5.8755506E-2,6.5756015E-2,-4.0347945E-2,2.8008139E-2,8.236843E-2,1.7830456E-2,-5.688125E-2,2.7687231E-2,8.780415E-2],"split_indices":[3072,3072,3072,314,1946,2755,1836,24,0,54,2921,153,682,0,581,0,0,0,0,2978,2821,3072,0,0,1097,0,16,0,0,0,0,0,0,0,0,0,0],"split_type":[0,0,0,0,0,0,0,0,0,0,0,0,0,0,0,0,0,0,0,0,0,0,0,0,0,0,0,0,0,0,0,0,0,0,0,0,0],"sum_hessian":[4.658704E2,2.7420142E2,1.9166899E2,2.56804E2,1.7397432E1,1.7401426E1,1.7426756E2,3.2495906E0,2.535544E2,3.1147106E0,1.4282722E1,1.1770318E1,5.6311088E0,1.2351993E0,1.7303236E2,1.0007868E0,2.2488039E0,1.8917301E0,1.2229804E0,1.1376287E1,2.906435E0,1.0593085E1,1.177233E0,1.486021E0,4.1450877E0,1.2300947E0,1.7180226E2,1.7512624E0,9.625026E0,1.3007929E0,1.605642E0,1.432595E0,9.16049E0,1.1526264E0,2.9924614E0,1.2321907E0,1.7057007E2],"tree_param":{"num_deleted":"0","num_feature":"3073","num_nodes":"37","size_leaf_vector":"1"}},{"base_weights":[3.5275833E-4,-1.169203E0,1.6063366E0,-1.2104646E0,-1.02650166E-1,5.389778E-1,1.6508378E0,-2.0903954E-3,-1.2169368E0,9.986333E-1,-7.6184726E-1,1.1593246E0,-4.0157974E-2,1.6614172E0,-1.7377151E-3,-4.2470813E-1,-6.1217334E-2,-3.3488695E-2,8.454982E-2,3.344571E-2,-5.4985374E-2,2.2255E-4,7.878463E-2,8.625949E-3,1.6703948E0,-4.088042E-2,1.7822748E-2,1.8332543E-2,8.3944306E-2],"categories":[],"categories_nodes":[],"categories_segments":[],"categories_sizes":[],"default_left":[0,0,0,0,0,0,0,0,0,0,0,0,0,0,0,0,0,0,0,0,0,0,0,0,0,0,0,0,0],"id":10,"left_children":[1,3,5,7,9,11,13,-1,15,17,19,21,-1,23,-1,25,-1,-1,-1,-1,-1,-1,-1,-1,27,-1,-1,-1,-1],"loss_changes":[8.7027496E2,1.1674011E1,8.38385E0,1.9006653E0,8.803105E0,8.673409E0,3.3913574E0,0E0,9.861145E-1,6.4241314E0,4.3597646E0,3.247799E0,0E0,2.1953125E0,0E0,1.491042E0,0E0,0E0,0E0,0E0,0E0,0E0,0E0,0E0,1.4276123E0,0E0,0E0,0E0,0E0],"parents":[2147483647,0,0,1,1,2,2,3,3,4,4,5,5,6,6,8,8,9,9,10,10,11,11,13,13,15,15,24,24],"right_children":[2,4,6,8,10,12,14,-1,16,18,20,22,-1,24,-1,26,-1,-1,-1,-1,-1,-1,-1,-1,28,-1,-1,-1,-1],"split_conditions":[5.389595E-1,3.1251493E-1,7.279766E-1,3.921569E-3,4.5882353E-1,5.803922E-1,9.2156863E-1,-2.0903954E-3,1.1764706E-2,4.9019608E-1,3.7254903E-1,3.4117648E-1,-4.0157974E-2,1.1764706E-2,-1.7377151E-3,4.862745E-1,-6.1217334E-2,-3.3488695E-2,8.454982E-2,3.344571E-2,-5.4985374E-2,2.2255E-4,7.878463E-2,8.625949E-3,1.2156863E-1,-4.088042E-2,1.7822748E-2,1.8332543E-2,8.3944306E-2],"split_indices":[3072,3072,3072,2699,1426,2545,588,0,314,1527,2584,841,0,2148,0,2464,0,0,0,0,0,0,0,0,1635,0,0,0,0],"split_type":[0,0,0,0,0,0,0,0,0,0,0,0,0,0,0,0,0,0,0,0,0,0,0,0,0,0,0,0,0],"sum_hessian":[4.613343E2,2.6709482E2,1.9423949E2,2.570167E2,1.0078114E1,8.299033E0,1.8594046E2,1.4566497E0,2.5556004E2,3.5808558E0,6.497258E0,5.768839E0,2.5301945E0,1.8479495E2,1.1455076E0,2.9085257E0,2.5265152E2,1.0597565E0,2.5210993E0,1.0539908E0,5.4432673E0,1.796527E0,3.9723117E0,1.2287388E0,1.8356621E2,1.904146E0,1.0043799E0,1.4737023E0,1.8209251E2],"tree_param":{"num_deleted":"0","num_feature":"3073","num_nodes":"29","size_leaf_vector":"1"}},{"base_weights":[1.6545495E-2,-1.1564994E0,1.5374182E0,-1.2047607E0,-3.1149888E-1,5.1935935E-1,1.5995796E0,-1.0442153E-2,-6.0427636E-2,1.0017368E0,-7.185761E-1,1.1634873E0,-5.1936716E-1,1.6098802E0,-2.403892E-3,4.8927697E-3,6.738378E-2,-1.0426428E0,3.7837338E-1,-6.1529754E-3,1.4573164E0,2.3843324E-2,-5.1602136E-2,7.977411E-3,1.6184964E0,-8.914165E-3,-5.620883E-2,6.1777312E-2,-3.513005E-2,8.047973E-2,1.9273242E-2,1.660139E-2,8.1351034E-2],"categories":[],"categories_nodes":[],"categories_segments":[],"categories_sizes":[],"default_left":[0,0,0,0,0,0,0,0,0,0,0,0,0,0,0,0,0,0,0,0,0,0,0,0,0,0,0,0,0,0,0,0,0],"id":11,"left_children":[1,3,5,7,9,11,13,-1,-1,15,17,19,21,23,-1,-1,-1,25,27,-1,29,-1,-1,-1,31,-1,-1,-1,-1,-1,-1,-1,-1],"loss_changes":[8.2095374E2,1.0219421E1,1.1849365E1,6.7437744E-1,8.94447E0,9.309615E0,3.2742004E0,0E0,0E0,1.1370873E0,4.776484E0,3.3319025E0,3.3888226E0,2.0813293E0,0E0,0E0,0E0,4.8895264E-1,4.1527195E0,0E0,5.0037384E-1,0E0,0E0,0E0,1.4995117E0,0E0,0E0,0E0,0E0,0E0,0E0,0E0,0E0],"parents":[2147483647,0,0,1,1,2,2,3,3,4,4,5,5,6,6,9,9,10,10,11,11,12,12,13,13,17,17,18,18,20,20,24,24],"right_children":[2,4,6,8,10,12,14,-1,-1,16,18,20,22,24,-1,-1,-1,26,28,-1,30,-1,-1,-1,32,-1,-1,-1,-1,-1,-1,-1,-1],"split_conditions":[4.818302E-1,2.0516513E-1,7.279766E-1,3.921569E-3,2.0784314E-1,4.7058824E-1,9.1764706E-1,-1.0442153E-2,-6.0427636E-2,3.5686275E-1,5.7254905E-1,3.137255E-1,4.862745E-1,7.843138E-3,-2.403892E-3,4.8927697E-3,6.738378E-2,2.3529412E-1,6.3529414E-1,-6.1529754E-3,5.176471E-1,2.3843324E-2,-5.1602136E-2,7.977411E-3,3.137255E-2,-8.914165E-3,-5.620883E-2,6.1777312E-2,-3.513005E-2,8.047973E-2,1.9273242E-2,1.660139E-2,8.1351034E-2],"split_indices":[3072,3072,3072,665,1649,2851,492,0,0,2916,2837,448,2562,2661,0,0,0,2003,2231,0,3039,0,0,0,1260,0,0,0,0,0,0,0,0],"split_type":[0,0,0,0,0,0,0,0,0,0,0,0,0,0,0,0,0,0,0,0,0,0,0,0,0,0,0,0,0,0,0,0,0],"sum_hessian":[4.5816577E2,2.5879642E2,1.9936937E2,2.444114E2,1.4385011E1,1.2011048E1,1.8735832E2,1.139789E0,2.4327162E2,3.058252E0,1.1326758E1,7.339573E0,4.671475E0,1.8621709E2,1.1412394E0,1.2015827E0,1.8566693E0,8.781877E0,2.5448825E0,1.4726558E0,5.8669176E0,1.610939E0,3.0605361E0,1.2150182E0,1.8500206E2,1.0316569E0,7.7502193E0,1.3396201E0,1.2052624E0,4.6978035E0,1.1691136E0,1.4807532E0,1.8352132E2],"tree_param":{"num_deleted":"0","num_feature":"3073","num_nodes":"33","size_leaf_vector":"1"}},{"base_weights":[-7.096333E-3,-1.1493767E0,1.4868853E0,-1.1911948E0,-4.1898277E-1,6.7386615E-1,1.5716207E0,-8.030168E-3,-5.9759904E-2,7.5088376E-1,-8.4466565E-1,9.2228174E-1,-5.055037E-2,1.4917009E-2,1.5808271E0,6.740128E-2,-1.7787674E-2,-1.0484818E0,2.8687997E-2,1.4636672E0,3.1147844E-1,1.5862764E0,2.1726E-2,-5.6242913E-2,-9.737187E-3,1.5639808E-2,7.899396E-2,-2.5860041E-2,5.5278447E-2,2.2418937E-2,7.958078E-2],"categories":[],"categories_nodes":[],"categories_segments":[],"categories_sizes":[],"default_left":[0,0,0,0,0,0,0,0,0,0,0,0,0,0,0,0,0,0,0,0,0,0,0,0,0,0,0,0,0,0,0],"id":12,"left_children":[1,3,5,7,9,11,13,-1,-1,15,17,19,-1,-1,21,-1,-1,23,-1,25,27,29,-1,-1,-1,-1,-1,-1,-1,-1,-1],"loss_changes":[7.529747E2,7.1380615E0,1.2111877E1,7.815552E-1,8.14557E0,9.217895E0,1.5491333E0,0E0,0E0,3.488606E0,3.9347973E0,5.42194E0,0E0,0E0,3.7838745E-1,0E0,0E0,4.6134853E-1,0E0,7.299385E-1,6.9037724E0,3.1750488E-1,0E0,0E0,0E0,0E0,0E0,0E0,0E0,0E0,0E0],"parents":[2147483647,0,0,1,1,2,2,3,3,4,4,5,5,6,6,9,9,10,10,11,11,14,14,17,17,19,19,20,20,21,21],"right_children":[2,4,6,8,10,12,14,-1,-1,16,18,20,-1,-1,22,-1,-1,24,-1,26,28,30,-1,-1,-1,-1,-1,-1,-1,-1,-1],"split_conditions":[4.818302E-1,2.0516513E-1,8.20247E-1,3.921569E-3,3.9607844E-1,7.490196E-1,1.1372549E-1,-8.030168E-3,-5.9759904E-2,4.509804E-1,8.3137256E-1,4.745098E-1,-5.055037E-2,1.4917009E-2,9.2941177E-1,6.740128E-2,-1.7787674E-2,5.882353E-1,2.8687997E-2,2.901961E-1,5.803922E-1,4.3137256E-2,2.1726E-2,-5.6242913E-2,-9.737187E-3,1.5639808E-2,7.899396E-2,-2.5860041E-2,5.5278447E-2,2.2418937E-2,7.958078E-2],"split_indices":[3072,3072,3072,65,496,1264,1833,0,0,546,393,2800,0,0,150,0,0,3008,0,994,870,927,0,0,0,0,0,0,0,0,0],"split_type":[0,0,0,0,0,0,0,0,0,0,0,0,0,0,0,0,0,0,0,0,0,0,0,0,0,0,0,0,0,0,0],"sum_hessian":[4.3922583E2,2.4904198E2,1.9018385E2,2.3495877E2,1.40832205E1,1.8795685E1,1.7138817E2,1.0682474E0,2.3389052E2,3.5535E0,1.052972E1,1.6775011E1,2.0206752E0,1.4701203E0,1.6991806E2,2.1663883E0,1.3871117E0,9.434826E0,1.0948945E0,8.15263E0,8.622381E0,1.6873212E2,1.185939E0,8.368593E0,1.066233E0,1.0863072E0,7.0663223E0,4.3899264E0,4.2324543E0,1.1848606E0,1.6754726E2],"tree_param":{"num_deleted":"0","num_feature":"3073","num_nodes":"31","size_leaf_vector":"1"}},{"base_weights":[7.274895E-3,-1.1272132E0,1.4312031E0,-1.1781778E0,-3.2367715E-1,3.530274E-1,1.4959251E0,-4.3969715E-1,-5.9329618E-2,9.1310406E-1,-8.302764E-1,1.3087945E0,-3.9393428E-1,5.7717464E-3,1.5046562E0,-4.0796064E-2,1.6395263E-2,8.123527E-2,-2.0512164E-2,-5.5595655E-2,8.194006E-2,1.8766006E-2,7.240579E-2,-1.0020058E0,5.4807287E-2,6.7553795E-3,1.5134075E0,5.5107314E-2,-3.8362946E-2,-5.6335207E-2,-1.1396292E-2,7.610216E-2,5.9018577E-3],"categories":[],"categories_nodes":[],"categories_segments":[],"categories_sizes":[],"default_left":[0,0,0,0,0,0,0,0,0,0,0,0,0,0,0,0,0,0,0,0,0,0,0,0,0,0,0,0,0,0,0,0,0],"id":13,"left_children":[1,3,5,7,9,11,13,15,-1,17,19,21,23,-1,25,-1,-1,-1,-1,-1,27,-1,-1,29,-1,-1,31,-1,-1,-1,-1,-1,-1],"loss_changes":[6.8997284E2,9.35376E0,1.2688202E1,8.6499023E-1,1.0505454E1,9.1070795E0,1.9760742E0,1.4524102E0,0E0,5.3720737E0,3.061079E0,1.731615E-1,7.9153314E0,0E0,1.9188538E0,0E0,0E0,0E0,0E0,0E0,4.015183E0,0E0,0E0,3.0938292E-1,0E0,0E0,1.9403076E0,0E0,0E0,0E0,0E0,0E0,0E0],"parents":[2147483647,0,0,1,1,2,2,3,3,4,4,5,5,6,6,7,7,9,9,10,10,11,11,12,12,14,14,20,20,23,23,26,26],"right_children":[2,4,6,8,10,12,14,16,-1,18,20,22,24,-1,26,-1,-1,-1,-1,-1,28,-1,-1,30,-1,-1,32,-1,-1,-1,-1,-1,-1],"split_conditions":[4.818302E-1,2.0516513E-1,7.279766E-1,1.1764706E-2,3.9607844E-1,4.4313726E-1,2.3529412E-2,5.568628E-1,-5.9329618E-2,4.509804E-1,6.4705884E-1,2.5882354E-1,6.2352943E-1,5.7717464E-3,3.137255E-2,-4.0796064E-2,1.6395263E-2,8.123527E-2,-2.0512164E-2,-5.5595655E-2,6.039216E-1,1.8766006E-2,7.240579E-2,5.0980395E-1,5.4807287E-2,6.7553795E-3,9.411765E-1,5.5107314E-2,-3.8362946E-2,-5.6335207E-2,-1.1396292E-2,7.610216E-2,5.9018577E-3],"split_indices":[3072,3072,3072,314,496,2857,2853,1369,0,546,2420,1273,475,0,1260,0,0,0,0,0,1595,0,0,851,0,0,2846,0,0,0,0,0,0],"split_type":[0,0,0,0,0,0,0,0,0,0,0,0,0,0,0,0,0,0,0,0,0,0,0,0,0,0,0,0,0,0,0,0,0],"sum_hessian":[4.2511545E2,2.3672089E2,1.8839455E2,2.2216382E2,1.4557077E1,1.1034238E1,1.773603E2,3.1028533E0,2.1906096E2,3.9968903E0,1.0560187E1,4.5105953E0,6.5236425E0,1.2040719E0,1.7615623E2,2.0400286E0,1.0628246E0,2.4511266E0,1.5457639E0,7.9017096E0,2.6584778E0,1.0655001E0,3.4450953E0,4.865628E0,1.6580151E0,1.2228507E0,1.7493338E2,1.0723352E0,1.5861425E0,3.7982235E0,1.0674042E0,1.737672E2,1.1661938E0],"tree_param":{"num_deleted":"0","num_feature":"3073","num_nodes":"33","size_leaf_vector":"1"}},{"base_weights":[-2.7543467E-3,2.4464102E-1,-9.773483E-1,-6.928106E-1,4.8155338E-1,-1.0103852E0,2.4564922E-2,-9.1054606E-1,-2.2235912E-1,7.0260906E-1,-6.2833834E-1,-1.17397E-1,-1.0553255E0,-9.881928E-1,5.040729E-1,-6.505509E-1,4.889152E-1,-5.045137E-1,8.4452695E-1,3.2677743E-1,-9.217631E-1,-4.179243E-2,4.124891E-2,-1.0690101E0,-2.4964537E-3,3.1744384E-3,-5.2618492E-2,7.1207196E-3,3.0577336E-2,-4.5075428E-2,2.7087752E-2,-3.238785E-2,4.885668E-2,5.736723E-4,-5.4076295E-2,-3.7575215E-2,4.630928E-2,3.8512316E-2,-4.2709615E-2,-5.2913345E-2,2.6744196E-2,-5.4154526E-2,-2.4964537E-3],"categories":[],"categories_nodes":[],"categories_segments":[],"categories_sizes":[],"default_left":[0,0,0,0,0,0,0,0,0,0,0,0,0,0,0,0,0,0,0,0,0,0,0,0,0,0,0,0,0,0,0,0,0,0,0,0,0,0,0,0,0,0,0],"id":14,"left_children":[1,3,5,7,9,11,-1,13,15,17,19,21,23,25,27,29,31,33,35,37,39,-1,-1,41,-1,-1,-1,-1,-1,-1,-1,-1,-1,-1,-1,-1,-1,-1,-1,-1,-1,-1,-1],"loss_changes":[1.0027712E2,7.400371E1,4.581703E0,6.6941605E0,6.555174E1,3.1939163E0,0E0,5.5181313E0,7.2087355E0,3.841886E1,1.2801828E1,4.133341E0,1.0278625E0,3.0137558E0,3.1077802E-2,4.842592E0,5.667933E0,7.145011E0,2.6608002E1,6.5346184E0,7.402794E0,0E0,0E0,1.0577393E0,0E0,0E0,0E0,0E0,0E0,0E0,0E0,0E0,0E0,0E0,0E0,0E0,0E0,0E0,0E0,0E0,0E0,0E0,0E0],"parents":[2147483647,0,0,1,1,2,2,3,3,4,4,5,5,7,7,8,8,9,9,10,10,11,11,12,12,13,13,14,14,15,15,16,16,17,17,18,18,19,19,20,20,23,23],"right_children":[2,4,6,8,10,12,-1,14,16,18,20,22,24,26,28,30,32,34,36,38,40,-1,-1,42,-1,-1,-1,-1,-1,-1,-1,-1,-1,-1,-1,-1,-1,-1,-1,-1,-1,-1,-1],"split_conditions":[7.8039217E-1,2.5882354E-1,9.0588236E-1,3.2941177E-1,7.607843E-1,1.1372549E-1,2.4564922E-2,8.27451E-1,4.2745098E-1,2.4705882E-1,7.607843E-1,4.5490196E-1,8.901961E-1,3.137255E-2,8.235294E-1,7.8039217E-1,3.2941177E-1,7.4509805E-1,1.6470589E-1,6.156863E-1,9.647059E-1,-4.179243E-2,4.124891E-2,9.72549E-1,-2.4964537E-3,3.1744384E-3,-5.2618492E-2,7.1207196E-3,3.0577336E-2,-4.5075428E-2,2.7087752E-2,-3.238785E-2,4.885668E-2,5.736723E-4,-5.4076295E-2,-3.7575215E-2,4.630928E-2,3.8512316E-2,-4.2709615E-2,-5.2913345E-2,2.6744196E-2,-5.4154526E-2,-2.4964537E-3],"split_indices":[654,2168,2885,2368,2287,104,0,2203,1592,2695,2191,37,85,1588,11,1735,657,1867,1109,1549,1310,0,0,1588,0,0,0,0,0,0,0,0,0,0,0,0,0,0,0,0,0,0,0],"split_type":[0,0,0,0,0,0,0,0,0,0,0,0,0,0,0,0,0,0,0,0,0,0,0,0,0,0,0,0,0,0,0,0,0,0,0,0,0,0,0,0,0,0,0],"sum_hessian":[4.1390613E2,3.3070697E2,8.319917E1,6.632754E1,2.6437943E2,8.1673965E1,1.5252062E0,4.4702667E1,2.1624868E1,2.2077493E2,4.3604496E1,4.0864477E0,7.758752E1,4.266242E1,2.040248E0,1.3551906E1,8.072963E0,2.2956549E1,1.9781837E2,1.0220964E1,3.3383533E1,2.3828454E0,1.7036021E0,7.648322E1,1.1042986E0,2.4542859E0,4.0208134E1,1.000062E0,1.0401859E0,1.1396958E1,2.1549468E0,2.327437E0,5.7455263E0,1.2636557E1,1.0319993E1,9.229203E0,1.8858917E2,7.6835E0,2.537465E0,3.0773235E1,2.610297E0,7.537892E1,1.1042986E0],"tree_param":{"num_deleted":"0","num_feature":"3073","num_nodes":"43","size_leaf_vector":"1"}},{"base_weights":[9.190145E-3,2.3278795E-1,-9.285366E-1,-6.406931E-1,4.554445E-1,-2.0883296E-1,-1.039056E0,1.3463402E-1,-7.741182E-1,6.375557E-1,-6.8795866E-1,4.9500978E-1,-4.904106E-2,-1.072815E0,2.9588655E-2,-4.7043122E-2,8.044053E-1,-8.7283456E-1,1.9277294E-1,-3.3847865E-1,8.745796E-1,-9.8101E-3,-1.0345502E0,-3.167028E-2,5.8877207E-2,-1.0898286E0,-8.518881E-3,5.791679E-2,-3.092208E-2,-4.886992E-2,-1.3809186E-2,3.6078386E-2,-3.7332695E-2,-4.2780887E-2,1.3040415E-2,-2.7656881E-2,4.7815308E-2,-4.776496E-2,2.6137907E-2,-5.645445E-2,1.289863E-2,-5.507351E-2,-8.713241E-3],"categories":[],"categories_nodes":[],"categories_segments":[],"categories_sizes":[],"default_left":[0,0,0,0,0,0,0,0,0,0,0,0,0,0,0,0,0,0,0,0,0,0,0,0,0,0,0,0,0,0,0,0,0,0,0,0,0,0,0,0,0,0,0],"id":15,"left_children":[1,3,5,7,9,11,13,15,17,19,21,23,-1,25,-1,-1,27,29,31,33,35,37,39,-1,-1,41,-1,-1,-1,-1,-1,-1,-1,-1,-1,-1,-1,-1,-1,-1,-1,-1,-1],"loss_changes":[8.5429436E1,6.427E1,6.022949E0,7.059717E0,5.5144573E1,6.839928E0,4.3651123E0,8.481487E0,5.6577454E0,5.284503E1,8.586767E0,5.96919E0,0E0,8.3896637E-1,0E0,0E0,4.3157167E0,2.9970627E0,3.5923731E0,1.4201565E1,2.1886856E1,7.2370005E0,3.247837E0,0E0,0E0,5.042343E-1,0E0,0E0,0E0,0E0,0E0,0E0,0E0,0E0,0E0,0E0,0E0,0E0,0E0,0E0,0E0,0E0,0E0],"parents":[2147483647,0,0,1,1,2,2,3,3,4,4,5,5,6,6,7,7,8,8,9,9,10,10,11,11,13,13,16,16,17,17,18,18,19,19,20,20,21,21,22,22,25,25],"right_children":[2,4,6,8,10,12,14,16,18,20,22,24,-1,26,-1,-1,28,30,32,34,36,38,40,-1,-1,42,-1,-1,-1,-1,-1,-1,-1,-1,-1,-1,-1,-1,-1,-1,-1,-1,-1],"split_conditions":[7.882353E-1,2.3921569E-1,7.764706E-1,2.2352941E-1,7.882353E-1,6.2352943E-1,9.843137E-1,2.2745098E-1,8.0784315E-1,3.6078432E-1,7.372549E-1,3.2941177E-1,-4.904106E-2,9.529412E-1,2.9588655E-2,-4.7043122E-2,3.1764707E-1,1.9215687E-1,8.039216E-1,2.8235295E-1,1.8431373E-1,5.019608E-1,9.9215686E-1,-3.167028E-2,5.8877207E-2,9.8039216E-1,-8.518881E-3,5.791679E-2,-3.092208E-2,-4.886992E-2,-1.3809186E-2,3.6078386E-2,-3.7332695E-2,-4.2780887E-2,1.3040415E-2,-2.7656881E-2,4.7815308E-2,-4.776496E-2,2.6137907E-2,-5.645445E-2,1.289863E-2,-5.507351E-2,-8.713241E-3],"split_indices":[750,1601,654,5,1906,1929,2789,2370,2102,751,814,2311,0,474,0,0,1925,1601,2277,1139,3004,294,1589,0,0,1180,0,0,0,0,0,0,0,0,0,0,0,0,0,0,0,0,0],"split_type":[0,0,0,0,0,0,0,0,0,0,0,0,0,0,0,0,0,0,0,0,0,0,0,0,0,0,0,0,0,0,0,0,0,0,0,0,0,0,0,0,0,0,0],"sum_hessian":[4.0540912E2,3.2795993E2,7.7449196E1,6.6236565E1,2.6172336E2,1.06947E1,6.67545E1,9.723672E0,5.651289E1,2.2614706E2,3.5576305E1,5.781936E0,4.9127636E0,6.573589E1,1.0186046E0,3.5762682E0,6.147404E0,5.1365883E1,5.1470075E0,4.410407E1,1.8204298E2,1.2380553E1,2.3195753E1,2.2063005E0,3.575636E0,6.43157E1,1.4201944E0,5.071725E0,1.0756795E0,4.3163322E1,8.202562E0,3.441644E0,1.7053636E0,2.344505E1,2.065902E1,9.544138E0,1.7249886E2,4.174911E0,8.205642E0,2.1732615E1,1.4631382E0,6.3307674E1,1.0080256E0],"tree_param":{"num_deleted":"0","num_feature":"3073","num_nodes":"43","size_leaf_vector":"1"}},{"base_weights":[2.3627216E-3,-1.1086917E0,1.3835492E0,-1.1473596E0,-2.431819E-2,3.33561E-1,1.430703E0,-6.703369E-3,-1.1550496E0,1.0779159E0,-8.6610794E-1,1.1680069E0,-6.412926E-1,6.8983674E-4,1.4402534E0,-7.5286725E-3,-1.1593897E0,7.847219E-2,-1.1182281E-2,-4.903334E-2,-8.7230485E-3,1.3954102E-4,7.311418E-2,2.079635E-2,-5.2437283E-2,1.4489354E0,3.274334E-3,-1.1984582E-2,-5.815202E-2,1.8738851E-2,7.2691016E-2],"categories":[],"categories_nodes":[],"categories_segments":[],"categories_sizes":[],"default_left":[0,0,0,0,0,0,0,0,0,0,0,0,0,0,0,0,0,0,0,0,0,0,0,0,0,0,0,0,0,0,0],"id":16,"left_children":[1,3,5,7,9,11,13,-1,15,17,19,21,23,-1,25,-1,27,-1,-1,-1,-1,-1,-1,-1,-1,29,-1,-1,-1,-1,-1],"loss_changes":[6.220235E2,9.391266E0,8.469482E0,1.5350952E0,9.058098E0,8.127439E0,2.3161926E0,0E0,7.6327515E-1,3.061709E0,2.6621866E-1,1.793232E0,2.516289E0,0E0,1.9516907E0,0E0,4.3988037E-1,0E0,0E0,0E0,0E0,0E0,0E0,0E0,0E0,3.48938E-1,0E0,0E0,0E0,0E0,0E0],"parents":[2147483647,0,0,1,1,2,2,3,3,4,4,5,5,6,6,8,8,9,9,10,10,11,11,12,12,14,14,16,16,25,25],"right_children":[2,4,6,8,10,12,14,-1,16,18,20,22,24,-1,26,-1,28,-1,-1,-1,-1,-1,-1,-1,-1,30,-1,-1,-1,-1,-1],"split_conditions":[4.818302E-1,3.1251493E-1,6.6733015E-1,7.843138E-3,4.5882353E-1,4.7058824E-1,3.529412E-2,-6.703369E-3,3.921569E-3,5.019608E-1,7.764706E-1,3.2156864E-1,4.9019608E-1,6.8983674E-4,9.2941177E-1,-7.5286725E-3,3.921569E-3,7.847219E-2,-1.1182281E-2,-4.903334E-2,-8.7230485E-3,1.3954102E-4,7.311418E-2,2.079635E-2,-5.2437283E-2,9.019608E-2,3.274334E-3,-1.1984582E-2,-5.815202E-2,1.8738851E-2,7.2691016E-2],"split_indices":[3072,3072,3072,2860,1426,1507,1841,0,2588,727,624,762,2617,0,150,0,1871,0,0,0,0,0,0,0,0,958,0,0,0,0,0],"split_type":[0,0,0,0,0,0,0,0,0,0,0,0,0,0,0,0,0,0,0,0,0,0,0,0,0,0,0,0,0,0,0],"sum_hessian":[4.033401E2,2.2363824E2,1.7970184E2,2.1588197E2,7.756277E0,8.070368E0,1.7163147E2,1.7648325E0,2.1411714E2,3.2371151E0,4.519162E0,4.241572E0,3.828796E0,1.1654675E0,1.70466E2,1.0747546E0,2.1304237E2,2.2003489E0,1.0367663E0,3.5185127E0,1.0006495E0,1.0587672E0,3.1828048E0,1.0593362E0,2.7694597E0,1.693426E2,1.1233915E0,1.1058524E0,2.1193652E2,1.1184865E0,1.6822412E2],"tree_param":{"num_deleted":"0","num_feature":"3073","num_nodes":"31","size_leaf_vector":"1"}},{"base_weights":[7.145652E-3,-1.1195476E0,1.2853388E0,-1.1450803E0,-4.1852257E-1,3.6807042E-1,1.3771892E0,-6.8830126E-3,-5.748702E-2,5.1733453E-2,-8.2615197E-1,1.1715053E0,-2.6524976E-1,1.3896574E0,-3.5617165E-3,-5.188326E-2,1.1703073E-2,1.4249943E0,-1.51433945E-2,1.026726E0,-8.6342424E-1,1.9006704E-3,1.3991677E0,1.8095544E-2,7.9495065E-2,1.1185721E-2,6.497632E-2,-5.700003E-2,1.8665867E-2,1.0579373E-2,7.0468836E-2],"categories":[],"categories_nodes":[],"categories_segments":[],"categories_sizes":[],"default_left":[0,0,0,0,0,0,0,0,0,0,0,0,0,0,0,0,0,0,0,0,0,0,0,0,0,0,0,0,0,0,0],"id":17,"left_children":[1,3,5,7,9,11,13,-1,-1,-1,15,17,19,21,-1,-1,-1,23,-1,25,27,-1,29,-1,-1,-1,-1,-1,-1,-1,-1],"loss_changes":[5.614658E2,3.229828E0,1.4881866E1,7.776184E-1,6.102046E0,9.46455E0,3.0907288E0,0E0,0E0,0E0,1.9188547E0,3.4642887E0,9.291249E0,2.0587769E0,0E0,0E0,0E0,6.6918564E-1,0E0,5.632925E-1,3.1540818E0,0E0,1.6794739E0,0E0,0E0,0E0,0E0,0E0,0E0,0E0,0E0],"parents":[2147483647,0,0,1,1,2,2,3,3,4,4,5,5,6,6,10,10,11,11,12,12,13,13,17,17,19,19,20,20,22,22],"right_children":[2,4,6,8,10,12,14,-1,-1,-1,16,18,20,22,-1,-1,-1,24,-1,26,28,-1,30,-1,-1,-1,-1,-1,-1,-1,-1],"split_conditions":[3.5693714E-1,2.0516513E-1,7.279766E-1,3.921569E-3,1.5686275E-1,4.7058824E-1,9.490196E-1,-6.8830126E-3,-5.748702E-2,5.1733453E-2,6.431373E-1,7.058824E-1,4.7058824E-1,2.3529412E-2,-3.5617165E-3,-5.188326E-2,1.1703073E-2,4.509804E-1,-1.51433945E-2,5.9607846E-1,6.5882355E-1,1.9006704E-3,1.3333334E-1,1.8095544E-2,7.9495065E-2,1.1185721E-2,6.497632E-2,-5.700003E-2,1.8665867E-2,1.0579373E-2,7.0468836E-2],"split_indices":[3072,3072,3072,2975,1642,1507,2846,0,0,0,863,65,2395,2853,0,0,0,87,0,1860,1331,0,589,0,0,0,0,0,0,0,0],"split_type":[0,0,0,0,0,0,0,0,0,0,0,0,0,0,0,0,0,0,0,0,0,0,0,0,0,0,0,0,0,0,0],"sum_hessian":[3.8787198E2,2.062193E2,1.816527E2,1.9836113E2,7.8581595E0,1.6989862E1,1.6466283E2,1.0539595E0,1.9730717E2,1.3844305E0,6.473729E0,7.1145306E0,9.875332E0,1.6329771E2,1.3651137E0,5.4147506E0,1.0589786E0,6.099359E0,1.0151716E0,2.8985107E0,6.9768214E0,1.1758566E0,1.6212186E2,1.2480918E0,4.851267E0,1.1965193E0,1.7019914E0,5.765653E0,1.2111682E0,1.566972E0,1.6055489E2],"tree_param":{"num_deleted":"0","num_feature":"3073","num_nodes":"31","size_leaf_vector":"1"}},{"base_weights":[9.667943E-3,-1.1136906E0,1.2645916E0,-1.1399567E0,-4.494293E-1,2.5775826E-1,1.3555136E0,-6.444776E-3,-5.7242293E-2,5.0062507E-2,-8.372715E-1,1.139461E0,-5.631445E-1,1.3680308E0,-3.4584645E-3,-5.1781256E-2,9.199805E-3,2.5017035E-1,1.4520962E0,6.288618E-1,-5.585844E-2,7.717979E-3,1.3786843E0,5.013262E-2,-3.3827987E-2,7.967236E-2,1.9978566E-2,-1.4565012E-2,5.6363434E-2,6.934522E-2,3.3356608E-3],"categories":[],"categories_nodes":[],"categories_segments":[],"categories_sizes":[],"default_left":[0,0,0,0,0,0,0,0,0,0,0,0,0,0,0,0,0,0,0,0,0,0,0,0,0,0,0,0,0,0,0],"id":18,"left_children":[1,3,5,7,9,11,13,-1,-1,-1,15,17,19,21,-1,-1,-1,23,25,27,-1,-1,29,-1,-1,-1,-1,-1,-1,-1,-1],"loss_changes":[5.289191E2,2.9419098E0,1.5873444E1,7.906189E-1,6.0041556E0,1.2159163E1,2.988922E0,0E0,0E0,0E0,1.7684321E0,1.8617439E0,6.586521E0,1.8681335E0,0E0,0E0,0E0,2.9724965E0,2.1328354E-1,1.9183601E0,0E0,0E0,1.6266174E0,0E0,0E0,0E0,0E0,0E0,0E0,0E0,0E0],"parents":[2147483647,0,0,1,1,2,2,3,3,4,4,5,5,6,6,10,10,11,11,12,12,13,13,17,17,18,18,19,19,22,22],"right_children":[2,4,6,8,10,12,14,-1,-1,-1,16,18,20,22,-1,-1,-1,24,26,28,-1,-1,30,-1,-1,-1,-1,-1,-1,-1,-1],"split_conditions":[3.5693714E-1,2.0516513E-1,6.6733015E-1,3.921569E-3,1.5294118E-1,5.2156866E-1,9.490196E-1,-6.444776E-3,-5.7242293E-2,5.0062507E-2,7.058824E-1,3.4901962E-1,3.6862746E-1,1.3333334E-1,-3.4584645E-3,-5.1781256E-2,9.199805E-3,1.9215687E-1,5.2156866E-1,4.9803922E-1,-5.585844E-2,7.717979E-3,8.627451E-1,5.013262E-2,-3.3827987E-2,7.967236E-2,1.9978566E-2,-1.4565012E-2,5.6363434E-2,6.934522E-2,3.3356608E-3],"split_indices":[3072,3072,3072,2975,1837,1119,2846,0,0,0,1731,956,2585,589,0,0,0,956,643,121,0,0,2704,0,0,0,0,0,0,0,0],"split_type":[0,0,0,0,0,0,0,0,0,0,0,0,0,0,0,0,0,0,0,0,0,0,0,0,0,0,0,0,0,0,0],"sum_hessian":[3.73193E2,1.9697829E2,1.762147E2,1.8879677E2,8.18151E0,1.4912689E1,1.6130202E2,1.0402286E0,1.8775655E2,1.3922746E0,6.7892356E0,7.0029783E0,7.909711E0,1.599366E2,1.3654208E0,5.6732936E0,1.1159419E0,2.289811E0,4.7131677E0,2.4669297E0,5.4427814E0,1.5264843E0,1.5841011E2,1.2184966E0,1.0713143E0,3.7020633E0,1.0111041E0,1.01274E0,1.4541897E0,1.5736702E2,1.0430887E0],"tree_param":{"num_deleted":"0","num_feature":"3073","num_nodes":"31","size_leaf_vector":"1"}},{"base_weights":[-8.723606E-3,-1.070044E0,1.2652217E0,-5.653752E-2,-2.2593729E-1,5.1223326E-1,1.3485574E0,9.262245E-1,-7.6478606E-1,8.477254E-1,-8.0962825E-1,-2.1348738E-3,1.3598335E0,7.342586E-2,-1.7297005E-2,-5.3370383E-2,1.9393813E-2,-2.0646693E-1,1.13312E0,-5.4629367E-2,-3.8846E-5,1.0626104E-2,1.3664529E0,3.558634E-2,-4.0602293E-2,6.7581914E-2,-1.2316908E-2,6.864114E-2,1.2304182E-2],"categories":[],"categories_nodes":[],"categories_segments":[],"categories_sizes":[],"default_left":[0,0,0,0,0,0,0,0,0,0,0,0,0,0,0,0,0,0,0,0,0,0,0,0,0,0,0,0,0],"id":19,"left_children":[1,3,5,-1,7,9,11,13,15,17,19,-1,21,-1,-1,-1,-1,23,25,-1,-1,-1,27,-1,-1,-1,-1,-1,-1],"loss_changes":[4.8621472E2,9.79686E0,9.565002E0,0E0,9.655521E0,8.623703E0,2.3569336E0,3.9881558E0,4.030187E0,4.6757364E0,9.454329E-1,0E0,8.1381226E-1,0E0,0E0,0E0,0E0,2.7972198E0,3.881588E0,0E0,0E0,0E0,6.9247437E-1,0E0,0E0,0E0,0E0,0E0,0E0],"parents":[2147483647,0,0,1,1,2,2,4,4,5,5,6,6,7,7,8,8,9,9,10,10,12,12,17,17,18,18,22,22],"right_children":[2,4,6,-1,8,10,12,14,16,18,20,-1,22,-1,-1,-1,-1,24,26,-1,-1,-1,28,-1,-1,-1,-1,-1,-1],"split_conditions":[4.818302E-1,2.0516513E-1,8.20247E-1,-5.653752E-2,3.137255E-1,7.058824E-1,1.1764706E-2,3.8431373E-1,5.921569E-1,3.2156864E-1,7.490196E-1,-2.1348738E-3,4.3137256E-2,7.342586E-2,-1.7297005E-2,-5.3370383E-2,1.9393813E-2,1.4509805E-1,6.7058825E-1,-5.4629367E-2,-3.8846E-5,1.0626104E-2,9.019608E-1,3.558634E-2,-4.0602293E-2,6.7581914E-2,-1.2316908E-2,6.864114E-2,1.2304182E-2],"split_indices":[3072,3072,3072,0,734,1081,2148,1747,2921,841,1807,0,872,0,0,0,0,641,1653,0,0,0,534,0,0,0,0,0,0],"split_type":[0,0,0,0,0,0,0,0,0,0,0,0,0,0,0,0,0,0,0,0,0,0,0,0,0,0,0,0,0],"sum_hessian":[3.5760785E2,1.9517126E2,1.624366E2,1.817599E2,1.3411352E1,1.6898134E1,1.4553847E2,4.044513E0,9.366839E0,1.3763586E1,3.134549E0,1.1477067E0,1.4439076E2,2.727501E0,1.3170123E0,7.477618E0,1.8892207E0,2.991206E0,1.077238E1,2.062307E0,1.0722421E0,1.0182011E0,1.4337256E2,1.119106E0,1.8720998E0,9.316701E0,1.4556797E0,1.4233798E2,1.0345827E0],"tree_param":{"num_deleted":"0","num_feature":"3073","num_nodes":"29","size_leaf_vector":"1"}},{"base_weights":[6.1156764E-3,-1.0886757E0,1.2123457E0,-1.1166174E0,-3.4916958E-1,5.0596976E-1,1.318026E0,-3.2130718E-1,-5.6357898E-2,5.2730102E-2,-8.6929375E-1,1.0485897E0,-5.130959E-2,-2.9119924E-3,1.3291569E0,-3.644201E-2,1.8809557E-2,-4.9201634E-2,-7.0678066E-3,1.2342526E0,-2.3685625E-2,4.9764922E-1,-4.8180442E-2,3.6799094E-1,1.3410826E0,7.026974E-2,-3.486106E-3,-1.73787E-2,5.0034255E-2,3.8212564E-2,-1.03942E-2,1.1010813E-2,6.7379825E-2],"categories":[],"categories_nodes":[],"categories_segments":[],"categories_sizes":[],"default_left":[0,0,0,0,0,0,0,0,0,0,0,0,0,0,0,0,0,0,0,0,0,0,0,0,0,0,0,0,0,0,0,0,0],"id":20,"left_children":[1,3,5,7,9,11,13,15,-1,-1,17,19,21,-1,23,-1,-1,-1,-1,25,-1,27,-1,29,31,-1,-1,-1,-1,-1,-1,-1,-1],"loss_changes":[4.6146106E2,3.395279E0,1.1744141E1,1.1137238E0,6.8487234E0,7.087266E0,2.2833252E0,1.3263721E0,0E0,0E0,4.0181017E-1,3.9286528E0,6.7037168E0,0E0,1.1442871E0,0E0,0E0,0E0,0E0,2.5132198E0,0E0,3.9272153E0,0E0,8.7296116E-1,7.309418E-1,0E0,0E0,0E0,0E0,0E0,0E0,0E0,0E0],"parents":[2147483647,0,0,1,1,2,2,3,3,4,4,5,5,6,6,7,7,10,10,11,11,12,12,14,14,19,19,21,21,23,23,24,24],"right_children":[2,4,6,8,10,12,14,16,-1,-1,18,20,22,-1,24,-1,-1,-1,-1,26,-1,28,-1,30,32,-1,-1,-1,-1,-1,-1,-1,-1],"split_conditions":[3.5693714E-1,2.0516513E-1,7.9833204E-1,1.1764706E-2,2.0392157E-1,4.862745E-1,7.843138E-3,5.0980393E-2,-5.6357898E-2,5.2730102E-2,7.3333335E-1,5.7254905E-1,5.921569E-1,-2.9119924E-3,1.254902E-1,-3.644201E-2,1.8809557E-2,-4.9201634E-2,-7.0678066E-3,6.431373E-1,-2.3685625E-2,5.647059E-1,-4.8180442E-2,4.5882353E-1,8.235294E-2,7.026974E-2,-3.486106E-3,-1.73787E-2,5.0034255E-2,3.8212564E-2,-1.03942E-2,1.1010813E-2,6.7379825E-2],"split_indices":[3072,3072,3072,314,122,1120,2661,409,0,0,807,623,2487,0,1174,0,0,0,0,1907,0,736,0,39,499,0,0,0,0,0,0,0,0],"split_type":[0,0,0,0,0,0,0,0,0,0,0,0,0,0,0,0,0,0,0,0,0,0,0,0,0,0,0,0,0,0,0,0,0],"sum_hessian":[3.4744125E2,1.8218501E2,1.6525624E2,1.7506055E2,7.124471E0,2.225951E1,1.4299673E2,2.7015853E0,1.7235896E2,1.6482866E0,5.4761844E0,1.0831406E1,1.1428104E1,1.113291E0,1.4188344E2,1.6768839E0,1.0247014E0,4.4266396E0,1.0495448E0,9.822638E0,1.0087683E0,7.4186087E0,4.009496E0,2.1292596E0,1.3975418E2,8.614266E0,1.2083704E0,2.8831906E0,4.535418E0,1.0675583E0,1.0617014E0,1.0086014E0,1.3874557E2],"tree_param":{"num_deleted":"0","num_feature":"3073","num_nodes":"33","size_leaf_vector":"1"}},{"base_weights":[1.0461588E-3,-1.0640656E0,1.2029736E0,-1.1075912E0,-3.6051583E-1,4.4501632E-1,1.3055271E0,-3.8871202E-1,-5.5933367E-2,5.0984878E-2,-6.864671E-1,7.1748745E-1,-8.981393E-1,-3.3671986E-3,1.3172133E0,-3.8682263E-2,1.8700121E-2,-5.209082E-2,1.6747531E-1,9.0026325E-1,-3.38138E-2,-5.2802652E-2,-1.1741507E-2,1.3239104E0,1.0519328E-2,5.2304383E-2,-3.585718E-2,-8.637069E-3,5.6101102E-2,1.0759532E-2,6.653252E-2],"categories":[],"categories_nodes":[],"categories_segments":[],"categories_sizes":[],"default_left":[0,0,0,0,0,0,0,0,0,0,0,0,0,0,0,0,0,0,0,0,0,0,0,0,0,0,0,0,0,0,0],"id":21,"left_children":[1,3,5,7,9,11,13,15,-1,-1,17,19,21,-1,23,-1,-1,-1,25,27,-1,-1,-1,29,-1,-1,-1,-1,-1,-1,-1],"loss_changes":[4.2335953E2,4.9697266E0,1.1496185E1,8.7605286E-1,5.9624963E0,7.9762373E0,2.2760468E0,1.4727182E0,0E0,0E0,3.2272978E0,4.9933023E0,1.5242386E-1,0E0,7.238922E-1,0E0,0E0,0E0,3.717501E0,3.9164572E0,0E0,0E0,0E0,7.167816E-1,0E0,0E0,0E0,0E0,0E0,0E0,0E0],"parents":[2147483647,0,0,1,1,2,2,3,3,4,4,5,5,6,6,7,7,10,10,11,11,12,12,14,14,18,18,19,19,23,23],"right_children":[2,4,6,8,10,12,14,16,-1,-1,18,20,22,-1,24,-1,-1,-1,26,28,-1,-1,-1,30,-1,-1,-1,-1,-1,-1,-1],"split_conditions":[4.4076678E-1,2.0516513E-1,8.20247E-1,1.1764706E-2,2.509804E-1,7.176471E-1,4.3137256E-2,6.039216E-1,-5.5933367E-2,5.0984878E-2,6.8235296E-1,8.039216E-1,7.6862746E-1,-3.3671986E-3,8.901961E-1,-3.8682263E-2,1.8700121E-2,-5.209082E-2,6.431373E-1,3.254902E-1,-3.38138E-2,-5.2802652E-2,-1.1741507E-2,8.235294E-2,1.0519328E-2,5.2304383E-2,-3.585718E-2,-8.637069E-3,5.6101102E-2,1.0759532E-2,6.653252E-2],"split_indices":[3072,3072,3072,314,114,1171,3030,2428,0,0,2229,1290,868,0,429,0,0,0,2234,763,0,0,0,499,0,0,0,0,0,0,0],"split_type":[0,0,0,0,0,0,0,0,0,0,0,0,0,0,0,0,0,0,0,0,0,0,0,0,0,0,0,0,0,0,0],"sum_hessian":[3.2870142E2,1.7433008E2,1.5437132E2,1.6363255E2,1.0697522E1,1.9033909E1,1.3533742E2,3.0306425E0,1.6060191E2,1.6370779E0,9.060444E0,1.6211151E1,2.8227575E0,1.1020983E0,1.3423532E2,2.0046084E0,1.0260341E0,6.2426825E0,2.8177617E0,1.4644742E1,1.5664095E0,1.8017242E0,1.0210333E0,1.3323305E2,1.0022807E0,1.3221047E0,1.495657E0,2.5461156E0,1.2098626E1,1.0040194E0,1.3222902E2],"tree_param":{"num_deleted":"0","num_feature":"3073","num_nodes":"31","size_leaf_vector":"1"}},{"base_weights":[1.9606488E-2,-1.0780004E0,1.1599239E0,-8.425514E-3,-1.088146E0,1.9866195E-1,1.2476729E0,-5.5242695E-2,-6.3918316E-1,1.0367004E0,-5.419021E-1,-5.841316E-3,1.2586821E0,2.4017815E-2,-8.805388E-1,7.141739E-5,6.739797E-2,5.465933E-1,-5.4115992E-2,-3.4451075E-3,1.2698396E0,-4.9323875E-2,-6.7898626E-3,4.9323004E-2,-1.2432931E-2,3.4509369E-3,6.403934E-2],"categories":[],"categories_nodes":[],"categories_segments":[],"categories_sizes":[],"default_left":[0,0,0,0,0,0,0,0,0,0,0,0,0,0,0,0,0,0,0,0,0,0,0,0,0,0,0],"id":22,"left_children":[1,3,5,-1,7,9,11,-1,13,15,17,-1,19,-1,21,-1,-1,23,-1,-1,25,-1,-1,-1,-1,-1,-1],"loss_changes":[3.9851654E2,1.313736E0,1.2923645E1,0E0,4.9606323E-1,9.406584E0,2.2937317E0,0E0,2.6179125E0,2.2630982E0,5.4283967E0,0E0,2.188568E0,0E0,4.2111778E-1,0E0,0E0,1.4319625E0,0E0,0E0,1.7613525E0,0E0,0E0,0E0,0E0,0E0,0E0],"parents":[2147483647,0,0,1,1,2,2,4,4,5,5,6,6,8,8,9,9,10,10,12,12,14,14,17,17,20,20],"right_children":[2,4,6,-1,8,10,12,-1,14,16,18,-1,20,-1,22,-1,-1,24,-1,-1,26,-1,-1,-1,-1,-1,-1],"split_conditions":[3.5693714E-1,1.1764706E-2,6.6733015E-1,-8.425514E-3,2.0516513E-1,4.862745E-1,7.843138E-3,-5.5242695E-2,2.784314E-1,2.6666668E-1,3.6862746E-1,-5.841316E-3,4.3137256E-2,2.4017815E-2,7.3333335E-1,7.141739E-5,6.739797E-2,6.117647E-1,-5.4115992E-2,-3.4451075E-3,3.137255E-2,-4.9323875E-2,-6.7898626E-3,4.9323004E-2,-1.2432931E-2,3.4509369E-3,6.403934E-2],"split_indices":[3072,404,3072,0,3072,1120,2262,0,22,1870,2585,0,1277,0,804,0,0,1624,0,0,1260,0,0,0,0,0,0],"split_type":[0,0,0,0,0,0,0,0,0,0,0,0,0,0,0,0,0,0,0,0,0,0,0,0,0,0,0],"sum_hessian":[3.1640146E2,1.6124782E2,1.5515364E2,1.9731686E0,1.5927466E2,1.3251519E1,1.4190213E2,1.5215147E2,7.1231728E0,6.0290437E0,7.222476E0,1.0588198E0,1.408433E2,1.0876796E0,6.035493E0,1.6258677E0,4.403176E0,2.3923795E0,4.8300962E0,1.1307021E0,1.397126E2,4.999701E0,1.035792E0,1.3855643E0,1.0068153E0,1.328152E0,1.3838445E2],"tree_param":{"num_deleted":"0","num_feature":"3073","num_nodes":"27","size_leaf_vector":"1"}},{"base_weights":[-1.40114995E-2,-1.0405551E0,1.1736954E0,-1.0922623E0,-3.7360176E-1,1.1428278E-1,1.2292777E0,-3.4458494E-1,-5.5199523E-2,8.56183E-1,-7.246238E-1,9.556102E-1,-5.6823134E-1,-6.0068388E-3,1.2405467E0,-3.7149873E-2,1.9816017E-2,6.9484203E-3,5.4584432E-2,-5.2213974E-2,2.5037658E-1,1.1280496E-2,5.5953454E-2,-5.188824E-2,3.1401288E-2,1.2502874E0,-1.7882579E-3,-2.2319337E-2,4.7628433E-2,3.0802533E-3,6.307541E-2],"categories":[],"categories_nodes":[],"categories_segments":[],"categories_sizes":[],"default_left":[0,0,0,0,0,0,0,0,0,0,0,0,0,0,0,0,0,0,0,0,0,0,0,0,0,0,0,0,0,0,0],"id":23,"left_children":[1,3,5,7,9,11,13,15,-1,17,19,21,23,-1,25,-1,-1,-1,-1,-1,27,-1,-1,-1,-1,29,-1,-1,-1,-1,-1],"loss_changes":[3.820088E2,5.387497E0,8.413254E0,9.8265076E-1,6.496143E0,5.3341765E0,2.2463074E0,1.432231E0,0E0,4.3622565E-1,3.730433E0,2.379539E-1,3.5914822E0,0E0,1.7462463E0,0E0,0E0,0E0,0E0,0E0,2.1644232E0,0E0,0E0,0E0,0E0,1.7342987E0,0E0,0E0,0E0,0E0,0E0],"parents":[2147483647,0,0,1,1,2,2,3,3,4,4,5,5,6,6,7,7,9,9,10,10,11,11,12,12,14,14,20,20,25,25],"right_children":[2,4,6,8,10,12,14,16,-1,18,20,22,24,-1,26,-1,-1,-1,-1,-1,28,-1,-1,-1,-1,30,-1,-1,-1,-1,-1],"split_conditions":[4.818302E-1,2.0516513E-1,6.6733015E-1,1.1764706E-2,1.6470589E-1,3.6862746E-1,2.3529412E-2,3.6862746E-1,-5.5199523E-2,1.882353E-1,7.137255E-1,3.6078432E-1,7.764706E-1,-6.0068388E-3,9.490196E-1,-3.7149873E-2,1.9816017E-2,6.9484203E-3,5.4584432E-2,-5.2213974E-2,5.9607846E-1,1.1280496E-2,5.5953454E-2,-5.188824E-2,3.1401288E-2,3.137255E-2,-1.7882579E-3,-2.2319337E-2,4.7628433E-2,3.0802533E-3,6.307541E-2],"split_indices":[3072,3072,3072,314,2273,2489,3030,2942,0,513,1830,83,1540,0,2463,0,0,0,0,0,1794,0,0,0,0,1260,0,0,0,0,0],"split_type":[0,0,0,0,0,0,0,0,0,0,0,0,0,0,0,0,0,0,0,0,0,0,0,0,0,0,0,0,0,0,0],"sum_hessian":[3.1131726E2,1.6705463E2,1.4426262E2,1.5444336E2,1.2611267E1,7.343817E0,1.3691881E2,2.854405E0,1.5158896E2,2.4808037E0,1.0130463E1,3.1100104E0,4.233807E0,1.053931E0,1.3586487E2,1.8544005E0,1.0000043E0,1.0062948E0,1.474509E0,7.5757003E0,2.5547626E0,1.0044417E0,2.1055686E0,3.1355767E0,1.0982304E0,1.3485605E2,1.0088168E0,1.4651929E0,1.0895698E0,1.3217801E0,1.3353427E2],"tree_param":{"num_deleted":"0","num_feature":"3073","num_nodes":"31","size_leaf_vector":"1"}},{"base_weights":[-2.889453E-2,-8.1637114E-1,1.6261208E-1,5.5336125E-2,-9.0677774E-1,3.3832696E-1,-7.6682574E-1,4.031127E-2,-5.5339056E-1,-9.8087144E-1,5.729018E-2,4.4767764E-1,-7.0149785E-1,-8.8697714E-1,5.567303E-1,-3.9699446E-2,5.2685994E-3,-1.0177298E0,-8.5462645E-2,-3.0408883E-2,4.3627236E-2,-4.84746E-1,5.8657587E-1,7.39365E-2,-5.0339997E-2,3.1873472E-2,-1.0150107E0,4.4151213E-2,-8.777792E-3,-1.9511186E-3,-5.206613E-2,2.1360679E-2,-2.8145943E-2,-3.8826194E-2,1.4335987E-2,-1.9343186E-2,3.34161E-2,2.7706388E-2,-3.1425968E-2,-3.0787993E-2,2.9290471E-2,-5.3637702E-2,-9.318151E-3],"categories":[],"categories_nodes":[],"categories_segments":[],"categories_sizes":[],"default_left":[0,0,0,0,0,0,0,0,0,0,0,0,0,0,0,0,0,0,0,0,0,0,0,0,0,0,0,0,0,0,0,0,0,0,0,0,0,0,0,0,0,0,0],"id":24,"left_children":[1,3,5,7,9,11,13,-1,15,17,19,21,23,25,27,-1,-1,29,31,-1,-1,33,35,37,-1,39,41,-1,-1,-1,-1,-1,-1,-1,-1,-1,-1,-1,-1,-1,-1,-1,-1],"loss_changes":[4.5536274E1,4.704647E0,3.9946796E1,3.4136682E0,3.8826675E0,2.3631165E1,6.6869087E0,0E0,7.459465E-1,1.5566063E0,3.1174319E0,2.4394691E1,4.786254E0,4.277912E0,1.0762389E0,0E0,0E0,1.0617065E0,9.896624E-1,0E0,0E0,5.7788873E0,1.318782E1,2.5590332E0,0E0,2.291904E0,1.317131E0,0E0,0E0,0E0,0E0,0E0,0E0,0E0,0E0,0E0,0E0,0E0,0E0,0E0,0E0,0E0,0E0],"parents":[2147483647,0,0,1,1,2,2,3,3,4,4,5,5,6,6,8,8,9,9,10,10,11,11,12,12,13,13,14,14,17,17,18,18,21,21,22,22,23,23,25,25,26,26],"right_children":[2,4,6,8,10,12,14,-1,16,18,20,22,24,26,28,-1,-1,30,32,-1,-1,34,36,38,-1,40,42,-1,-1,-1,-1,-1,-1,-1,-1,-1,-1,-1,-1,-1,-1,-1,-1],"split_conditions":[2.0392157E-1,2.0784314E-1,7.882353E-1,1.4901961E-1,8.039216E-1,8.117647E-1,9.72549E-1,4.031127E-2,4.1960785E-1,8E-1,8.1960785E-1,2.9803923E-1,7.176471E-1,5.882353E-1,8.901961E-1,-3.9699446E-2,5.2685994E-3,6.27451E-2,1.6862746E-1,-3.0408883E-2,4.3627236E-2,4.117647E-1,2.6666668E-1,4.9019608E-1,-5.0339997E-2,4.9411765E-1,9.411765E-1,4.4151213E-2,-8.777792E-3,-1.9511186E-3,-5.206613E-2,2.1360679E-2,-2.8145943E-2,-3.8826194E-2,1.4335987E-2,-1.9343186E-2,3.34161E-2,2.7706388E-2,-3.1425968E-2,-3.0787993E-2,2.9290471E-2,-5.3637702E-2,-9.318151E-3],"split_indices":[1598,2,1906,2501,2636,456,1583,0,2678,1799,2396,553,1188,1683,1678,0,0,75,2330,0,0,257,2215,299,0,267,1594,0,0,0,0,0,0,0,0,0,0,0,0,0,0,0,0],"split_type":[0,0,0,0,0,0,0,0,0,0,0,0,0,0,0,0,0,0,0,0,0,0,0,0,0,0,0,0,0,0,0,0,0,0,0,0,0,0,0,0,0,0,0],"sum_hessian":[3.000704E2,5.8060852E1,2.4200955E2,5.4922323E0,5.256862E1,2.0406586E2,3.7943687E1,2.3137195E0,3.178513E0,4.8800606E1,3.7680135E0,1.851631E2,1.8902763E1,3.5088253E1,2.855431E0,2.1778345E0,1.0006785E0,4.6740005E1,2.0606031E0,2.2144372E0,1.5535761E0,2.3683805E1,1.614793E2,5.5540075E0,1.3348756E1,4.383137E0,3.0705118E1,1.8328838E0,1.0225471E0,1.1626697E0,4.5577335E1,1.044396E0,1.0162072E0,1.717968E1,6.504124E0,1.222077E1,1.4925851E2,3.4243293E0,2.1296782E0,1.9692192E0,2.4139178E0,2.8429462E1,2.275656E0],"tree_param":{"num_deleted":"0","num_feature":"3073","num_nodes":"43","size_leaf_vector":"1"}},{"base_weights":[-1.678195E-2,-1.0375944E0,1.1379362E0,-1.0757059E0,-1.1505322E-1,5.5062914E-1,1.225241E0,-5.716155E-3,-1.0816815E0,9.028185E-1,-4.6680998E-2,8.9265007E-1,-6.056461E-1,-3.454959E-3,1.2391101E0,-5.4754294E-2,-5.529804E-1,6.0692556E-2,2.5742447E-3,1.030315E0,-2.37703E-2,-6.36732E-2,4.1756075E-2,8.282133E-3,1.2471223E0,-3.8542416E-2,1.05554275E-2,5.8101274E-2,-1.2710835E-2,6.27485E-2,9.66209E-3],"categories":[],"categories_nodes":[],"categories_segments":[],"categories_sizes":[],"default_left":[0,0,0,0,0,0,0,0,0,0,0,0,0,0,0,0,0,0,0,0,0,0,0,0,0,0,0,0,0,0,0],"id":25,"left_children":[1,3,5,7,9,11,13,-1,15,17,-1,19,21,-1,23,-1,25,-1,-1,27,-1,-1,-1,-1,29,-1,-1,-1,-1,-1,-1],"loss_changes":[3.493709E2,5.4071045E0,6.45665E0,7.434845E-1,6.9757E0,8.376991E0,2.2445526E0,0E0,4.5677185E-1,9.408736E-1,0E0,3.445941E0,5.988924E0,0E0,8.1729126E-1,0E0,1.1160277E0,0E0,0E0,2.7616148E0,0E0,0E0,0E0,0E0,7.3347473E-1,0E0,0E0,0E0,0E0,0E0,0E0],"parents":[2147483647,0,0,1,1,2,2,3,3,4,4,5,5,6,6,8,8,9,9,11,11,12,12,14,14,16,16,19,19,24,24],"right_children":[2,4,6,8,10,12,14,-1,16,18,-1,20,22,-1,24,-1,26,-1,-1,28,-1,-1,-1,-1,30,-1,-1,-1,-1,-1,-1],"split_conditions":[4.818302E-1,3.1251493E-1,8.383948E-1,3.921569E-3,4.5490196E-1,6.3529414E-1,1.1372549E-1,-5.716155E-3,2.0516513E-1,4.4313726E-1,-4.6680998E-2,8.039216E-1,6.745098E-1,-3.454959E-3,3.137255E-2,-5.4754294E-2,6.117647E-1,6.0692556E-2,2.5742447E-3,7.176471E-1,-2.37703E-2,-6.36732E-2,4.1756075E-2,8.282133E-3,9.9215686E-1,-3.8542416E-2,1.05554275E-2,5.8101274E-2,-1.2710835E-2,6.27485E-2,9.66209E-3],"split_indices":[3072,3072,3072,191,1426,3013,1833,0,3072,161,0,415,767,0,773,0,2352,0,0,188,0,0,0,0,2468,0,0,0,0,0,0],"split_type":[0,0,0,0,0,0,0,0,0,0,0,0,0,0,0,0,0,0,0,0,0,0,0,0,0,0,0,0,0,0,0],"sum_hessian":[2.9438913E2,1.5630836E2,1.3808078E2,1.4994777E2,6.3605866E0,1.88153E1,1.1926548E2,1.0506048E0,1.4889717E2,2.7892644E0,3.5713222E0,1.4696221E1,4.1190796E0,1.2221918E0,1.1804329E2,1.4417065E2,4.726511E0,1.7310185E0,1.058246E0,1.3576881E1,1.11934E0,2.8938546E0,1.2252249E0,1.0351006E0,1.1700819E2,3.6709511E0,1.0555601E0,1.2400733E1,1.1761482E0,1.15953926E2,1.054261E0],"tree_param":{"num_deleted":"0","num_feature":"3073","num_nodes":"31","size_leaf_vector":"1"}},{"base_weights":[-2.2010328E-2,-1.0076684E0,1.1199179E0,-5.4068353E-2,-2.5045684E-1,5.538904E-1,1.2219595E0,4.9724396E-2,-5.8400404E-1,8.4444296E-1,-7.268097E-1,-9.302964E-3,1.2371982E0,-9.038123E-1,4.969587E-1,1.0296848E0,-3.2439988E-2,-6.4338595E-2,2.0010574E-2,6.2286522E-2,8.699249E-3,7.5811124E-3,-5.2173335E-2,5.6137126E-2,-1.766542E-2,-8.8543035E-3,5.6376643E-2],"categories":[],"categories_nodes":[],"categories_segments":[],"categories_sizes":[],"default_left":[0,0,0,0,0,0,0,0,0,0,0,0,0,0,0,0,0,0,0,0,0,0,0,0,0,0,0],"id":26,"left_children":[1,3,5,-1,7,9,11,-1,13,15,17,-1,19,21,23,25,-1,-1,-1,-1,-1,-1,-1,-1,-1,-1,-1],"loss_changes":[3.174748E2,8.176865E0,6.8711243E0,0E0,6.69658E0,8.721854E0,2.588089E0,0E0,4.6825876E0,5.708687E0,3.396975E0,0E0,7.706604E-1,1.6034107E0,2.227615E0,2.1595917E0,0E0,0E0,0E0,0E0,0E0,0E0,0E0,0E0,0E0,0E0,0E0],"parents":[2147483647,0,0,1,1,2,2,4,4,5,5,6,6,8,8,9,9,10,10,12,12,13,13,14,14,15,15],"right_children":[2,4,6,-1,8,10,12,-1,14,16,18,-1,20,22,24,26,-1,-1,-1,-1,-1,-1,-1,-1,-1,-1,-1],"split_conditions":[5.389595E-1,2.0516513E-1,8.8011956E-1,-5.4068353E-2,2.3529412E-1,6.3529414E-1,1.1372549E-1,4.9724396E-2,6.4705884E-1,6.509804E-1,6.666667E-1,-9.302964E-3,8.745098E-1,3.647059E-1,6.039216E-1,2.901961E-1,-3.2439988E-2,-6.4338595E-2,2.0010574E-2,6.2286522E-2,8.699249E-3,7.5811124E-3,-5.2173335E-2,5.6137126E-2,-1.766542E-2,-8.8543035E-3,5.6376643E-2],"split_indices":[3072,3072,3072,0,1556,3013,1833,0,2117,2938,2727,0,1817,1392,2396,2685,0,0,0,0,0,0,0,0,0,0,0],"split_type":[0,0,0,0,0,0,0,0,0,0,0,0,0,0,0,0,0,0,0,0,0,0,0,0,0,0,0],"sum_hessian":[2.800591E2,1.5037775E2,1.2968135E2,1.3664969E2,1.3728061E1,2.0789501E1,1.08891846E2,2.4821255E0,1.12459345E1,1.7222803E1,3.5666988E0,1.0458814E0,1.0784596E2,8.804855E0,2.4410791E0,1.5598227E1,1.6245757E0,2.2881045E0,1.2785943E0,1.068171E2,1.0288578E0,1.0188941E0,7.7859616E0,1.2215661E0,1.2195129E0,1.1091503E0,1.4489077E1],"tree_param":{"num_deleted":"0","num_feature":"3073","num_nodes":"27","size_leaf_vector":"1"}},{"base_weights":[-1.7541884E-2,-7.858021E-1,1.711011E-1,2.3075486E-2,-8.3611333E-1,3.857551E-1,-6.3061213E-1,-9.1752666E-1,-9.286211E-2,-6.312385E-1,5.128046E-1,-4.74647E-2,-9.43135E-1,-4.2879012E-1,-9.887477E-1,4.9214402E-1,-3.8117606E-2,-8.66673E-1,6.3451745E-2,5.995336E-1,-4.457862E-1,-4.5128163E-2,3.4328845E-1,-1.0111434E0,1.7941466E-2,7.078327E-3,-4.2881005E-2,-5.060029E-2,-1.1875568E-2,4.3597665E-2,-1.1678696E-2,6.2704976E-3,-4.7894757E-2,-3.015517E-2,2.6705539E-2,-7.5353817E-3,3.6255565E-2,7.654576E-3,-4.3388154E-2,3.3320315E-2,-2.74218E-2,-9.869927E-4,-5.2394655E-2],"categories":[],"categories_nodes":[],"categories_segments":[],"categories_sizes":[],"default_left":[0,0,0,0,0,0,0,0,0,0,0,0,0,0,0,0,0,0,0,0,0,0,0,0,0,0,0,0,0,0,0,0,0,0,0,0,0,0,0,0,0,0,0],"id":27,"left_children":[1,3,5,-1,7,9,11,13,15,17,19,21,23,25,27,29,-1,31,33,35,37,-1,39,41,-1,-1,-1,-1,-1,-1,-1,-1,-1,-1,-1,-1,-1,-1,-1,-1,-1,-1,-1],"loss_changes":[3.9277615E1,3.7384262E0,3.7701458E1,0E0,3.043686E0,2.2588314E1,8.402346E0,1.1943054E0,2.8102643E0,3.2580972E0,1.3048092E1,6.0654926E0,3.030159E0,1.9995687E0,4.5524597E-1,1.2857363E0,0E0,1.4500599E0,2.1696248E0,1.3431301E1,3.5011075E0,0E0,3.9807897E0,1.0319061E0,0E0,0E0,0E0,0E0,0E0,0E0,0E0,0E0,0E0,0E0,0E0,0E0,0E0,0E0,0E0,0E0,0E0,0E0,0E0],"parents":[2147483647,0,0,1,1,2,2,4,4,5,5,6,6,7,7,8,8,9,9,10,10,11,11,12,12,13,13,14,14,15,15,17,17,18,18,19,19,20,20,22,22,23,23],"right_children":[2,4,6,-1,8,10,12,14,16,18,20,22,24,26,28,30,-1,32,34,36,38,-1,40,42,-1,-1,-1,-1,-1,-1,-1,-1,-1,-1,-1,-1,-1,-1,-1,-1,-1,-1,-1],"split_conditions":[2E-1,7.843138E-3,7.8431374E-1,2.3075486E-2,8.352941E-1,2.1960784E-1,6.3529414E-1,2.2745098E-1,1.4117648E-1,2.1960784E-1,7.764706E-1,3.372549E-1,9.72549E-1,6.117647E-1,8.1960785E-1,8.4313726E-1,-3.8117606E-2,6.27451E-2,3.1764707E-1,3.647059E-1,7.294118E-1,-4.5128163E-2,7.5686276E-1,6.2352943E-1,1.7941466E-2,7.078327E-3,-4.2881005E-2,-5.060029E-2,-1.1875568E-2,4.3597665E-2,-1.1678696E-2,6.2704976E-3,-4.7894757E-2,-3.015517E-2,2.6705539E-2,-7.5353817E-3,3.6255565E-2,7.654576E-3,-4.3388154E-2,3.3320315E-2,-2.74218E-2,-9.869927E-4,-5.2394655E-2],"split_indices":[914,2798,1462,0,1159,2069,1027,3071,933,1973,2290,445,1772,1671,1169,2761,0,2544,2186,751,718,0,519,1380,0,0,0,0,0,0,0,0,0,0,0,0,0,0,0,0,0,0,0],"split_type":[0,0,0,0,0,0,0,0,0,0,0,0,0,0,0,0,0,0,0,0,0,0,0,0,0,0,0,0,0,0,0,0,0,0,0,0,0,0,0,0,0,0,0],"sum_hessian":[2.6908902E2,5.2423893E1,2.1666512E2,1.7156847E0,5.070821E1,1.7131529E2,4.5349823E1,4.5490818E1,5.2173915E0,1.8584385E1,1.5273091E2,1.6225662E1,2.912416E1,6.678928E0,3.881189E1,2.9257464E0,2.2916453E0,1.3695377E1,4.889007E0,1.4040248E2,1.2328425E1,4.6782603E0,1.1547402E1,2.7890656E1,1.2335044E0,3.153953E0,3.5249746E0,3.7309673E1,1.502215E0,1.7883153E0,1.137431E0,1.1216913E0,1.2573686E1,1.9069504E0,2.9820569E0,2.0102646E1,1.2029984E2,5.3594275E0,6.9689984E0,8.661551E0,2.8858507E0,1.0518464E0,2.683881E1],"tree_param":{"num_deleted":"0","num_feature":"3073","num_nodes":"43","size_leaf_vector":"1"}},{"base_weights":[-3.9925496E-3,1.6190971E-1,-7.507744E-1,-4.6852392E-1,3.39786E-1,5.9193492E-2,-8.927098E-1,-6.007981E-1,4.1656357E-1,4.74615E-1,-6.935587E-1,4.4020405E-1,-3.2667022E-2,-9.337485E-1,1.7910594E-2,-6.63902E-1,2.5065837E-2,-2.9318605E-2,7.1675366E-1,-4.9791634E-1,6.0341084E-1,-6.706403E-2,-5.005565E-2,7.1396834E-1,-1.9781353E-2,-2.6580233E-3,-9.584232E-1,2.3153258E-2,-3.6011044E-2,-1.2446349E-2,4.997876E-2,2.2740161E-2,-3.771376E-2,-3.0760108E-2,3.3337917E-2,1.8258339E-2,-3.5612542E-2,-3.004381E-3,4.764326E-2,-4.985163E-2,-2.1236494E-2],"categories":[],"categories_nodes":[],"categories_segments":[],"categories_sizes":[],"default_left":[0,0,0,0,0,0,0,0,0,0,0,0,0,0,0,0,0,0,0,0,0,0,0,0,0,0,0,0,0,0,0,0,0,0,0,0,0,0,0,0,0],"id":28,"left_children":[1,3,5,7,9,11,13,15,17,19,21,23,-1,25,-1,27,-1,-1,29,31,33,35,-1,37,-1,-1,39,-1,-1,-1,-1,-1,-1,-1,-1,-1,-1,-1,-1,-1,-1],"loss_changes":[3.3524426E1,2.4989662E1,5.707386E0,6.0041313E0,2.4471146E1,2.5332413E0,2.486187E0,3.3349705E0,2.5219126E0,1.95742E1,3.8646784E0,1.6524543E0,0E0,8.3685684E-1,0E0,2.9522018E0,0E0,0E0,1.8390164E0,4.871871E0,1.0934315E1,2.4327152E0,0E0,9.5717406E-1,0E0,0E0,3.943138E-1,0E0,0E0,0E0,0E0,0E0,0E0,0E0,0E0,0E0,0E0,0E0,0E0,0E0,0E0],"parents":[2147483647,0,0,1,1,2,2,3,3,4,4,5,5,6,6,7,7,8,8,9,9,10,10,11,11,13,13,15,15,18,18,19,19,20,20,21,21,23,23,26,26],"right_children":[2,4,6,8,10,12,14,16,18,20,22,24,-1,26,-1,28,-1,-1,30,32,34,36,-1,38,-1,-1,40,-1,-1,-1,-1,-1,-1,-1,-1,-1,-1,-1,-1,-1,-1],"split_conditions":[7.764706E-1,3.2941177E-1,7.529412E-1,7.764706E-1,7.7254903E-1,7.0980394E-1,9.019608E-1,9.6862745E-1,4.1960785E-1,2.5882354E-1,7.921569E-1,8.392157E-1,-3.2667022E-2,1.4117648E-1,1.7910594E-2,1.5686275E-2,2.5065837E-2,-2.9318605E-2,9.019608E-2,2.509804E-1,1.882353E-1,6.0784316E-1,-5.005565E-2,3.529412E-1,-1.9781353E-2,-2.6580233E-3,8.784314E-1,2.3153258E-2,-3.6011044E-2,-1.2446349E-2,4.997876E-2,2.2740161E-2,-3.771376E-2,-3.0760108E-2,3.3337917E-2,1.8258339E-2,-3.5612542E-2,-3.004381E-3,4.764326E-2,-4.985163E-2,-2.1236494E-2],"split_indices":[654,751,750,2819,2479,2607,2885,1487,1819,1784,2188,655,0,201,0,1805,0,0,725,3071,2773,2943,0,2464,0,0,1784,0,0,0,0,0,0,0,0,0,0,0,0,0,0],"split_type":[0,0,0,0,0,0,0,0,0,0,0,0,0,0,0,0,0,0,0,0,0,0,0,0,0,0,0,0,0,0,0,0,0,0,0,0,0,0,0,0,0],"sum_hessian":[2.6861108E2,2.204254E2,4.8185696E1,4.814713E1,1.7227827E2,7.271746E0,4.0913948E1,4.216663E1,5.980499E0,1.5287244E2,1.940583E1,4.987173E0,2.284573E0,3.9859825E1,1.0541208E0,4.0259117E1,1.907512E0,1.1580651E0,4.8224335E0,1.7542664E1,1.3532977E2,6.790826E0,1.26150055E1,3.866542E0,1.1206311E0,1.172437E0,3.868739E1,1.5724014E0,3.8686718E1,1.1195673E0,3.7028663E0,3.5554128E0,1.3987251E1,6.2567854E0,1.29073E2,4.3264294E0,2.4643965E0,1.0884159E0,2.7781262E0,3.5267807E1,3.419583E0],"tree_param":{"num_deleted":"0","num_feature":"3073","num_nodes":"41","size_leaf_vector":"1"}},{"base_weights":[-6.639995E-3,-1.033205E0,1.0647138E0,-1.0696605E0,-4.1720253E-1,1.4957882E-1,1.1729262E0,-4.397209E-1,-5.3842407E-2,5.6590575E-1,-4.8778594E-2,7.979393E-1,-5.7147795E-1,1.1922208E0,1.319017E-3,-2.9534891E-2,-2.9882756E-3,-1.7065955E-2,5.2710004E-2,1.0847443E0,-2.3595054E-2,3.3641238E-2,-5.312584E-2,-3.5956507E-3,1.2050868E0,6.413142E-2,-7.2170695E-4,4.368623E-3,6.095962E-2],"categories":[],"categories_nodes":[],"categories_segments":[],"categories_sizes":[],"default_left":[0,0,0,0,0,0,0,0,0,0,0,0,0,0,0,0,0,0,0,0,0,0,0,0,0,0,0,0,0],"id":29,"left_children":[1,3,5,7,9,11,13,15,-1,17,-1,19,21,23,-1,-1,-1,-1,-1,25,-1,-1,-1,-1,27,-1,-1,-1,-1],"loss_changes":[2.907995E2,2.5858917E0,1.263736E1,1.007843E-1,5.593371E0,7.3880444E0,2.5249329E0,1.4373583E-1,0E0,2.1138482E0,0E0,3.507321E0,5.36032E0,1.9346313E0,0E0,0E0,0E0,0E0,0E0,1.5438089E0,0E0,0E0,0E0,0E0,1.6676788E0,0E0,0E0,0E0,0E0],"parents":[2147483647,0,0,1,1,2,2,3,3,4,4,5,5,6,6,7,7,9,9,11,11,12,12,13,13,19,19,24,24],"right_children":[2,4,6,8,10,12,14,16,-1,18,-1,20,22,24,-1,-1,-1,-1,-1,26,-1,-1,-1,-1,28,-1,-1,-1,-1],"split_conditions":[4.0630662E-1,2.0516513E-1,7.279766E-1,1.1764706E-2,3.5686275E-1,4.7843137E-1,9.019608E-1,4.0784314E-1,-5.3842407E-2,2.3137255E-1,-4.8778594E-2,7.0980394E-1,3.6078432E-1,7.843138E-3,1.319017E-3,-2.9534891E-2,-2.9882756E-3,-1.7065955E-2,5.2710004E-2,4.5882353E-1,-2.3595054E-2,3.3641238E-2,-5.312584E-2,-3.5956507E-3,1.3333334E-1,6.413142E-2,-7.2170695E-4,4.368623E-3,6.095962E-2],"split_indices":[3072,3072,3072,314,37,2851,534,151,0,68,0,100,1507,1974,0,0,0,0,0,2207,0,0,0,0,589,0,0,0,0],"split_type":[0,0,0,0,0,0,0,0,0,0,0,0,0,0,0,0,0,0,0,0,0,0,0,0,0,0,0,0,0],"sum_hessian":[2.6240756E2,1.3402306E2,1.283845E2,1.2583934E2,8.1837225E0,1.3827744E1,1.1455677E2,2.1210804E0,1.2371826E2,2.9595E0,5.2242217E0,7.2247562E0,6.602988E0,1.1262167E2,1.9350921E0,1.120997E0,1.0000836E0,1.1408532E0,1.818647E0,6.0125337E0,1.2122225E0,1.7636515E0,4.8393364E0,1.0884448E0,1.1153323E2,4.9538074E0,1.0587263E0,1.4796586E0,1.1005357E2],"tree_param":{"num_deleted":"0","num_feature":"3073","num_nodes":"29","size_leaf_vector":"1"}},{"base_weights":[-5.326528E-3,-1.0242208E0,1.0393436E0,-1.0643861E0,-2.680496E-1,3.3073306E-1,1.1744816E0,-3.7408092E-3,-5.3601157E-2,4.649671E-2,-7.21825E-1,6.9739E-1,-4.606815E-1,-7.083792E-3,1.1886694E0,-4.7192793E-2,1.0750242E-2,-6.487399E-2,9.60196E-1,2.8406689E-2,-8.2555854E-1,7.5569153E-3,6.0271066E-2,4.4047765E-2,-4.1300625E-2,-4.92196E-3,5.868038E-2,-5.147926E-2,6.755145E-4],"categories":[],"categories_nodes":[],"categories_segments":[],"categories_sizes":[],"default_left":[0,0,0,0,0,0,0,0,0,0,0,0,0,0,0,0,0,0,0,0,0,0,0,0,0,0,0,0,0],"id":30,"left_children":[1,3,5,7,9,11,13,-1,-1,-1,15,17,19,-1,21,-1,-1,23,25,-1,27,-1,-1,-1,-1,-1,-1,-1,-1],"loss_changes":[2.691504E2,3.602539E0,1.15677185E1,8.3587646E-1,4.9076657E0,6.527961E0,2.1191254E0,0E0,0E0,0E0,1.4957085E0,3.0702114E0,3.2372568E0,0E0,1.6160126E0,0E0,0E0,4.1733284E0,2.6523886E0,0E0,1.015604E0,0E0,0E0,0E0,0E0,0E0,0E0,0E0,0E0],"parents":[2147483647,0,0,1,1,2,2,3,3,4,4,5,5,6,6,10,10,11,11,12,12,14,14,17,17,18,18,20,20],"right_children":[2,4,6,8,10,12,14,-1,-1,-1,16,18,20,-1,22,-1,-1,24,26,-1,28,-1,-1,-1,-1,-1,-1,-1,-1],"split_conditions":[3.5693714E-1,2.0516513E-1,7.9833204E-1,7.843138E-3,1.5686275E-1,6E-1,4.7058824E-2,-3.7408092E-3,-5.3601157E-2,4.649671E-2,7.7254903E-1,4.5490196E-1,3.529412E-1,-7.083792E-3,1.254902E-1,-4.7192793E-2,1.0750242E-2,3.7254903E-1,3.8431373E-1,2.8406689E-2,7.882353E-1,7.5569153E-3,6.0271066E-2,4.4047765E-2,-4.1300625E-2,-4.92196E-3,5.868038E-2,-5.147926E-2,6.755145E-4],"split_indices":[3072,3072,3072,209,1642,499,2949,0,0,0,903,1731,2672,0,1174,0,0,873,2031,0,8,0,0,0,0,0,0,0,0],"split_type":[0,0,0,0,0,0,0,0,0,0,0,0,0,0,0,0,0,0,0,0,0,0,0,0,0,0,0,0,0],"sum_hessian":[2.5086371E2,1.2700852E2,1.2385519E2,1.2021549E2,6.793035E0,2.0389263E1,1.0346592E2,1.0033455E0,1.1921214E2,1.5779259E0,5.2151093E0,1.4015011E1,6.3742533E0,1.0076125E0,1.0245831E2,4.209862E0,1.0052469E0,3.7862394E0,1.0228771E1,1.5229776E0,4.851276E0,1.7872409E0,1.0067107E2,1.6180949E0,2.1681445E0,1.8064666E0,8.422304E0,3.719734E0,1.1315417E0],"tree_param":{"num_deleted":"0","num_feature":"3073","num_nodes":"29","size_leaf_vector":"1"}},{"base_weights":[4.5611486E-3,-9.954339E-1,1.0541086E0,-1.0580975E0,-2.8643006E-1,5.3282684E-1,1.1657811E0,-4.7131017E-1,-5.3291935E-2,7.7330714E-1,-6.9219065E-1,8.545714E-1,-1.6903625E-1,5.164468E-3,1.1816727E0,-3.1251356E-2,-2.9595587E-3,5.1375132E-2,7.5310334E-3,-4.9373206E-2,1.3023475E-2,9.951834E-1,-2.0173883E-2,-1.1459893E0,4.7835246E-1,5.9543014E-2,7.6455376E-3,-3.1958625E-3,5.5457707E-2,-1.5394707E-2,-6.8054676E-2,-2.286886E-2,4.406036E-2],"categories":[],"categories_nodes":[],"categories_segments":[],"categories_sizes":[],"default_left":[0,0,0,0,0,0,0,0,0,0,0,0,0,0,0,0,0,0,0,0,0,0,0,0,0,0,0,0,0,0,0,0,0],"id":31,"left_children":[1,3,5,7,9,11,13,15,-1,17,19,21,23,-1,25,-1,-1,-1,-1,-1,-1,27,-1,29,31,-1,-1,-1,-1,-1,-1,-1,-1],"loss_changes":[2.5837448E2,5.2979507E0,6.370865E0,2.2125244E-2,5.526945E0,5.3457985E0,1.5339508E0,1.7181134E-1,0E0,4.2874312E-1,2.7669482E0,3.2245188E0,5.65519E0,0E0,7.303467E-1,0E0,0E0,0E0,0E0,0E0,0E0,1.838336E0,0E0,2.1418953E-1,2.4997172E0,0E0,0E0,0E0,0E0,0E0,0E0,0E0,0E0],"parents":[2147483647,0,0,1,1,2,2,3,3,4,4,5,5,6,6,7,7,9,9,10,10,11,11,12,12,14,14,21,21,23,23,24,24],"right_children":[2,4,6,8,10,12,14,16,-1,18,20,22,24,-1,26,-1,-1,-1,-1,-1,-1,28,-1,30,32,-1,-1,-1,-1,-1,-1,-1,-1],"split_conditions":[4.818302E-1,2.0516513E-1,8.8011956E-1,1.1764706E-2,2.0784314E-1,6.039216E-1,1.1372549E-1,3.3333334E-1,-5.3291935E-2,2.1568628E-1,7.0980394E-1,7.254902E-1,6.117647E-1,5.164468E-3,9.1764706E-1,-3.1251356E-2,-2.9595587E-3,5.1375132E-2,7.5310334E-3,-4.9373206E-2,1.3023475E-2,2.627451E-1,-2.0173883E-2,5.3333336E-1,3.764706E-1,5.9543014E-2,7.6455376E-3,-3.1958625E-3,5.5457707E-2,-1.5394707E-2,-6.8054676E-2,-2.286886E-2,4.406036E-2],"split_indices":[3072,3072,3072,314,1649,2545,1833,1544,0,1927,2115,2590,2447,0,2846,0,0,0,0,0,0,2682,0,9,2123,0,0,0,0,0,0,0,0],"split_type":[0,0,0,0,0,0,0,0,0,0,0,0,0,0,0,0,0,0,0,0,0,0,0,0,0,0,0,0,0,0,0,0,0],"sum_hessian":[2.4417848E2,1.2506743E2,1.1911105E2,1.14458885E2,1.0608545E1,2.2033085E1,9.7077965E1,2.2961097E0,1.1216277E2,2.6864474E0,7.9220977E0,1.4958368E1,7.074716E0,1.5410992E0,9.5536865E1,1.2960689E0,1.0000408E0,1.4460306E0,1.2404169E0,6.0197616E0,1.902336E0,1.3642495E1,1.3158733E0,2.5127044E0,4.5620117E0,9.4535034E1,1.0018312E0,1.3681165E0,1.2274379E1,1.0097723E0,1.5029321E0,1.3322324E0,3.2297792E0],"tree_param":{"num_deleted":"0","num_feature":"3073","num_nodes":"33","size_leaf_vector":"1"}},{"base_weights":[-1.1659579E-2,1.6570507E-1,-7.035093E-1,-5.388776E-1,3.375321E-1,-3.400617E-1,-9.8036444E-1,-5.1417895E-2,-3.554711E-1,-5.626101E-1,4.481228E-1,1.05426274E-1,-8.792464E-1,-1.0146118E0,-2.0939568E-3,-7.906612E-1,-9.015204E-2,-1.11938575E-2,-7.826697E-1,5.662916E-1,-4.5585105E-1,-3.5872225E-2,5.0024503E-1,-4.836978E-2,-1.322419E-3,-1.2543919E-2,-5.181801E-2,-9.3284727E-4,-4.5066975E-2,1.4307174E-2,-2.6735013E-2,-3.5029158E-2,2.2203205E-2,-4.4072546E-2,8.037034E-3,-3.323994E-2,3.0769823E-2,4.1352254E-3,-4.1729387E-2,4.117404E-2,-2.5214782E-2],"categories":[],"categories_nodes":[],"categories_segments":[],"categories_sizes":[],"default_left":[0,0,0,0,0,0,0,0,0,0,0,0,0,0,0,0,0,0,0,0,0,0,0,0,0,0,0,0,0,0,0,0,0,0,0,0,0,0,0,0,0],"id":32,"left_children":[1,3,5,7,9,11,13,-1,15,17,19,21,23,25,-1,27,29,31,33,35,37,-1,39,-1,-1,-1,-1,-1,-1,-1,-1,-1,-1,-1,-1,-1,-1,-1,-1,-1,-1],"loss_changes":[2.9491693E1,2.334783E1,4.6009293E0,3.0369349E0,1.5627058E1,5.553461E0,8.3506966E-1,0E0,3.288552E0,2.095662E0,1.5010824E1,4.693407E0,7.5565815E-1,1.768322E-1,0E0,9.138746E-1,3.3658202E0,2.1820848E0,1.2955008E0,7.819729E0,3.4386823E0,0E0,3.5340595E0,0E0,0E0,0E0,0E0,0E0,0E0,0E0,0E0,0E0,0E0,0E0,0E0,0E0,0E0,0E0,0E0,0E0,0E0],"parents":[2147483647,0,0,1,1,2,2,3,3,4,4,5,5,6,6,8,8,9,9,10,10,11,11,12,12,13,13,15,15,16,16,17,17,18,18,19,19,20,20,22,22],"right_children":[2,4,6,8,10,12,14,-1,16,18,20,22,24,26,-1,28,30,32,34,36,38,-1,40,-1,-1,-1,-1,-1,-1,-1,-1,-1,-1,-1,-1,-1,-1,-1,-1,-1,-1],"split_conditions":[7.647059E-1,3.019608E-1,6.862745E-1,9.411765E-2,1.9607843E-1,6.2352943E-1,9.529412E-1,-5.1417895E-2,3.764706E-1,3.1764707E-1,7.764706E-1,3.4509805E-1,9.2156863E-1,6.5882355E-1,-2.0939568E-3,1.4509805E-1,5.294118E-1,3.8039216E-1,8.0784315E-1,1.6862746E-1,7.8039217E-1,-3.5872225E-2,6.1960787E-1,-4.836978E-2,-1.322419E-3,-1.2543919E-2,-5.181801E-2,-9.3284727E-4,-4.5066975E-2,1.4307174E-2,-2.6735013E-2,-3.5029158E-2,2.2203205E-2,-4.4072546E-2,8.037034E-3,-3.323994E-2,3.0769823E-2,4.1352254E-3,-4.1729387E-2,4.117404E-2,-2.5214782E-2],"split_indices":[651,553,1239,640,1697,2601,2600,0,2302,557,2290,2417,647,849,0,694,2688,370,452,2473,916,0,1165,0,0,0,0,0,0,0,0,0,0,0,0,0,0,0,0,0,0],"split_type":[0,0,0,0,0,0,0,0,0,0,0,0,0,0,0,0,0,0,0,0,0,0,0,0,0,0,0,0,0,0,0,0,0,0,0,0,0,0,0,0,0],"sum_hessian":[2.3838712E2,1.9034914E2,4.803798E1,3.6900635E1,1.534485E2,2.1734219E1,2.6303762E1,8.802174E0,2.8098461E1,1.6342554E1,1.3710594E2,1.23416815E1,9.392537E0,2.5299416E1,1.0043474E0,9.892398E0,1.8206062E1,4.9613867E0,1.1381167E1,1.2158565E2,1.5520301E1,3.736668E0,8.605013E0,8.3908415E0,1.0016955E0,1.04757E0,2.4251844E1,1.3869187E0,8.50548E0,1.0052921E1,8.153141E0,1.7589574E0,3.2024295E0,1.0361887E1,1.0192802E0,4.182763E0,1.17402885E2,6.7308316E0,8.789469E0,6.6465597E0,1.9584535E0],"tree_param":{"num_deleted":"0","num_feature":"3073","num_nodes":"41","size_leaf_vector":"1"}},{"base_weights":[-1.0623916E-2,-1.002797E0,1.0431607E0,-1.0604297E0,-3.185401E-1,4.1631126E-1,1.1565626E0,-4.1520292E-1,-5.344325E-2,-7.44688E-1,4.741253E-1,8.1561315E-1,-2.2166204E-1,1.1663585E0,6.5129152E-3,-2.8265089E-2,-2.7214542E-3,1.5441115E-2,-4.887371E-2,5.0043028E-2,-2.9448016E-2,1.0293357E0,-1.5858177E-2,-6.049425E-1,4.3043837E-2,7.388517E-3,5.8799393E-2,5.693161E-2,2.633275E-3,3.1510886E-2,-4.8319757E-2],"categories":[],"categories_nodes":[],"categories_segments":[],"categories_sizes":[],"default_left":[0,0,0,0,0,0,0,0,0,0,0,0,0,0,0,0,0,0,0,0,0,0,0,0,0,0,0,0,0,0,0],"id":33,"left_children":[1,3,5,7,9,11,13,15,-1,17,19,21,23,25,-1,-1,-1,-1,-1,-1,-1,27,-1,29,-1,-1,-1,-1,-1,-1,-1],"loss_changes":[2.4076779E2,4.3393707E0,7.4572678E0,1.4923859E-1,3.9481514E0,4.9370737E0,7.9319E-1,1.3392174E-1,0E0,2.0947547E0,3.0153337E0,3.1583452E0,3.829193E0,7.383194E-1,0E0,0E0,0E0,0E0,0E0,0E0,0E0,1.0156183E0,0E0,3.500281E0,0E0,0E0,0E0,0E0,0E0,0E0,0E0],"parents":[2147483647,0,0,1,1,2,2,3,3,4,4,5,5,6,6,7,7,9,9,10,10,11,11,12,12,13,13,21,21,23,23],"right_children":[2,4,6,8,10,12,14,16,-1,18,20,22,24,26,-1,-1,-1,-1,-1,-1,-1,28,-1,30,-1,-1,-1,-1,-1,-1,-1],"split_conditions":[4.4076678E-1,2.0516513E-1,8.383948E-1,1.1764706E-2,6.117647E-1,5.568628E-1,9.9215686E-1,2.4313726E-1,-5.344325E-2,3.0980393E-1,6E-1,5.6078434E-1,6.9803923E-1,1.3333334E-1,6.5129152E-3,-2.8265089E-2,-2.7214542E-3,1.5441115E-2,-4.887371E-2,5.0043028E-2,-2.9448016E-2,7.7254903E-1,-1.5858177E-2,3.372549E-1,4.3043837E-2,7.388517E-3,5.8799393E-2,5.693161E-2,2.633275E-3,3.1510886E-2,-4.8319757E-2],"split_indices":[3072,3072,3072,314,2352,2755,2468,924,0,765,523,2842,2045,39,0,0,0,0,0,0,0,292,0,2350,0,0,0,0,0,0,0],"split_type":[0,0,0,0,0,0,0,0,0,0,0,0,0,0,0,0,0,0,0,0,0,0,0,0,0,0,0,0,0,0,0],"sum_hessian":[2.2828102E2,1.1760263E2,1.1067839E2,1.07959785E2,9.642848E0,1.7670835E1,9.300755E1,2.0412796E0,1.059185E2,6.310671E0,3.3321772E0,1.0697143E1,6.9736924E0,9.199303E1,1.0145241E0,1.0411837E0,1.0000958E0,1.082955E0,5.227716E0,2.2673085E0,1.0648686E0,9.076065E0,1.6210777E0,5.4760427E0,1.4976496E0,1.0145961E0,9.097843E1,8.01347E0,1.0625956E0,1.0713711E0,4.4046717E0],"tree_param":{"num_deleted":"0","num_feature":"3073","num_nodes":"31","size_leaf_vector":"1"}},{"base_weights":[4.3452135E-3,-9.936141E-1,9.615089E-1,-1.0370824E0,-2.5492877E-1,2.9186854E-1,1.1107417E0,-1.2279551E-1,-5.2737307E-2,4.394884E-2,-6.9800675E-1,8.983346E-1,-1.18232764E-1,-7.8024263E-3,1.1290185E0,-2.8861005E-2,2.0898242E-2,-4.6004973E-2,9.725778E-3,1.0450355E0,-5.0009694E-3,-7.191431E-1,4.670373E-1,-3.2346935E-3,1.1458867E0,1.571056E-2,5.942843E-2,1.411998E-2,-5.238756E-2,3.826581E-2,-3.3769935E-2,5.779142E-2,6.3849515E-3],"categories":[],"categories_nodes":[],"categories_segments":[],"categories_sizes":[],"default_left":[0,0,0,0,0,0,0,0,0,0,0,0,0,0,0,0,0,0,0,0,0,0,0,0,0,0,0,0,0,0,0,0,0],"id":34,"left_children":[1,3,5,7,9,11,13,15,-1,-1,17,19,21,-1,23,-1,-1,-1,-1,25,-1,27,29,-1,31,-1,-1,-1,-1,-1,-1,-1,-1],"loss_changes":[2.1634827E2,3.2960892E0,1.1228691E1,1.5564651E0,4.3757777E0,5.6835546E0,2.3567886E0,1.0056038E0,0E0,0E0,1.356775E0,1.4465151E0,5.3517246E0,0E0,1.946022E0,0E0,0E0,0E0,0E0,4.737234E-1,0E0,2.7414358E0,3.185514E0,0E0,7.8086853E-1,0E0,0E0,0E0,0E0,0E0,0E0,0E0,0E0],"parents":[2147483647,0,0,1,1,2,2,3,3,4,4,5,5,6,6,7,7,10,10,11,11,12,12,14,14,19,19,21,21,22,22,24,24],"right_children":[2,4,6,8,10,12,14,16,-1,-1,18,20,22,-1,24,-1,-1,-1,-1,26,-1,28,30,-1,32,-1,-1,-1,-1,-1,-1,-1,-1],"split_conditions":[3.5693714E-1,2.0516513E-1,8.20247E-1,1.1764706E-2,1.5294118E-1,4.7843137E-1,1.254902E-1,4.7058824E-1,-5.2737307E-2,4.394884E-2,8E-1,7.137255E-1,5.6078434E-1,-7.8024263E-3,1.1764706E-1,-2.8861005E-2,2.0898242E-2,-4.6004973E-2,9.725778E-3,3.882353E-1,-5.0009694E-3,3.3333334E-1,8.862745E-1,-3.2346935E-3,9.137255E-1,1.571056E-2,5.942843E-2,1.411998E-2,-5.238756E-2,3.826581E-2,-3.3769935E-2,5.779142E-2,6.3849515E-3],"split_indices":[3072,3072,3072,314,1837,2344,1999,1161,0,0,903,1883,1865,0,2859,0,0,0,0,2209,0,2960,1684,0,150,0,0,0,0,0,0,0,0],"split_type":[0,0,0,0,0,0,0,0,0,0,0,0,0,0,0,0,0,0,0,0,0,0,0,0,0,0,0,0,0,0,0,0,0],"sum_hessian":[2.2449263E2,1.0988554E2,1.14607086E2,1.0339712E2,6.4884186E0,2.142485E1,9.3182236E1,2.1104515E0,1.0128667E2,1.5466088E0,4.9418097E0,8.162888E0,1.3261962E1,1.2180747E0,9.196416E1,1.110134E0,1.0003173E0,3.9323876E0,1.0094222E0,7.0763164E0,1.0865718E0,6.4306884E0,6.831274E0,1.2419119E0,9.072225E1,1.6851577E0,5.3911586E0,1.6234136E0,4.807275E0,5.6787176E0,1.1525562E0,8.971112E1,1.0111309E0],"tree_param":{"num_deleted":"0","num_feature":"3073","num_nodes":"33","size_leaf_vector":"1"}},{"base_weights":[-8.941235E-3,-9.873274E-1,1.0305868E0,-5.253718E-2,-3.170383E-1,3.830966E-1,1.1366475E0,4.2556727E-1,-4.799583E-2,6.390149E-1,-5.0887194E-2,1.1470246E0,7.3120254E-3,-1.9722162E-2,7.511063E-1,8.4622014E-1,-3.2192063E-1,9.147828E-3,5.780783E-2,5.13363E-2,-8.4937405E-4,-1.9480005E-2,5.069993E-2,1.2903082E-2,-3.7653096E-2],"categories":[],"categories_nodes":[],"categories_segments":[],"categories_sizes":[],"default_left":[0,0,0,0,0,0,0,0,0,0,0,0,0,0,0,0,0,0,0,0,0,0,0,0,0],"id":35,"left_children":[1,3,5,-1,7,9,11,13,-1,15,-1,17,-1,-1,19,21,23,-1,-1,-1,-1,-1,-1,-1,-1],"loss_changes":[2.1750093E2,4.349533E0,6.6853333E0,0E0,5.6378493E0,6.4231596E0,7.427292E-1,1.8379999E0,0E0,3.1056786E0,0E0,5.5901337E-1,0E0,0E0,9.655535E-1,2.8792667E0,1.0066284E0,0E0,0E0,0E0,0E0,0E0,0E0,0E0,0E0],"parents":[2147483647,0,0,1,1,2,2,4,4,5,5,6,6,7,7,9,9,11,11,14,14,15,15,16,16],"right_children":[2,4,6,-1,8,10,12,14,-1,16,-1,18,-1,-1,20,22,24,-1,-1,-1,-1,-1,-1,-1,-1],"split_conditions":[4.818302E-1,2.0516513E-1,8.20247E-1,-5.253718E-2,4.4705883E-1,7.176471E-1,8.627451E-1,3.2156864E-1,-4.799583E-2,7.058824E-1,-5.0887194E-2,1.6862746E-1,7.3120254E-3,-1.9722162E-2,4.5490196E-1,2.1568628E-1,5.4901963E-1,9.147828E-3,5.780783E-2,5.13363E-2,-8.4937405E-4,-1.9480005E-2,5.069993E-2,1.2903082E-2,-3.7653096E-2],"split_indices":[3072,3072,3072,0,1415,1171,1820,2687,0,1383,0,2476,0,0,1429,762,2586,0,0,0,0,0,0,0,0],"split_type":[0,0,0,0,0,0,0,0,0,0,0,0,0,0,0,0,0,0,0,0,0,0,0,0,0],"sum_hessian":[2.1185217E2,1.0916147E2,1.02690704E2,9.9207794E1,9.953675E0,1.5102634E1,8.758807E1,4.7754536E0,5.178222E0,1.3229571E1,1.8730637E0,8.652338E1,1.0646963E0,1.2969255E0,3.4785278E0,1.0981108E1,2.248463E0,1.0092616E0,8.5514114E1,2.3121324E0,1.1663955E0,1.1545839E0,9.826524E0,1.1299161E0,1.118547E0],"tree_param":{"num_deleted":"0","num_feature":"3073","num_nodes":"25","size_leaf_vector":"1"}},{"base_weights":[-3.5089585E-3,-9.4793856E-1,9.983132E-1,-1.0255553E0,-1.8087958E-1,3.2904378E-1,1.0938957E0,-1.7013714E-1,-5.223876E-2,6.878305E-1,-6.139374E-1,9.2078155E-1,-4.2740697E-1,-5.0511193E-3,1.1137196E0,-3.0829763E-2,2.1207336E-2,4.4799116E-2,1.3439847E-3,-4.8482403E-2,2.6324851E-2,5.6105923E-2,-8.27092E-3,-8.740179E-1,3.3225022E-2,1.1243674E0,6.5701283E-3,1.4445563E-3,-5.909741E-2,1.9573895E-2,5.7211023E-2],"categories":[],"categories_nodes":[],"categories_segments":[],"categories_sizes":[],"default_left":[0,0,0,0,0,0,0,0,0,0,0,0,0,0,0,0,0,0,0,0,0,0,0,0,0,0,0,0,0,0,0],"id":36,"left_children":[1,3,5,7,9,11,13,15,-1,17,19,21,23,-1,25,-1,-1,-1,-1,-1,-1,-1,-1,27,-1,29,-1,-1,-1,-1,-1],"loss_changes":[1.9268008E2,6.055359E0,5.9617615E0,1.3837738E0,4.502698E0,6.561708E0,2.1506805E0,1.1322147E0,0E0,5.372156E-1,3.6611052E0,1.9458141E0,3.8632834E0,0E0,7.384033E-1,0E0,0E0,0E0,0E0,0E0,0E0,0E0,0E0,1.482449E0,0E0,7.696228E-1,0E0,0E0,0E0,0E0,0E0],"parents":[2147483647,0,0,1,1,2,2,3,3,4,4,5,5,6,6,7,7,9,9,10,10,11,11,12,12,14,14,23,23,25,25],"right_children":[2,4,6,8,10,12,14,16,-1,18,20,22,24,-1,26,-1,-1,-1,-1,-1,-1,-1,-1,28,-1,30,-1,-1,-1,-1,-1],"split_conditions":[5.389595E-1,2.0516513E-1,8.20247E-1,1.1764706E-2,2.2745098E-1,4.627451E-1,1.254902E-1,5.882353E-1,-5.223876E-2,2.6666668E-1,6.392157E-1,6.5882355E-1,6.4705884E-1,-5.0511193E-3,8.745098E-1,-3.0829763E-2,2.1207336E-2,4.4799116E-2,1.3439847E-3,-4.8482403E-2,2.6324851E-2,5.6105923E-2,-8.27092E-3,4.2745098E-1,3.3225022E-2,1.6078432E-1,6.5701283E-3,1.4445563E-3,-5.909741E-2,1.9573895E-2,5.7211023E-2],"split_indices":[3072,3072,3072,314,1001,2549,1999,2329,0,1658,2923,2755,2129,0,342,0,0,0,0,0,0,0,0,2905,0,1750,0,0,0,0,0],"split_type":[0,0,0,0,0,0,0,0,0,0,0,0,0,0,0,0,0,0,0,0,0,0,0,0,0,0,0,0,0,0,0],"sum_hessian":[2.0164616E2,1.0382391E2,9.782225E1,9.397757E1,9.846344E0,1.2779885E1,8.5042366E1,2.2816164E0,9.169595E1,3.0798607E0,6.766484E0,7.0487347E0,5.731151E0,1.3210014E0,8.372136E1,1.2814093E0,1.0002071E0,2.0717978E0,1.0080627E0,5.271893E0,1.4945905E0,5.918601E0,1.1301337E0,4.209099E0,1.522052E0,8.268054E1,1.0408204E0,1.300873E0,2.908226E0,2.7270887E0,7.995345E1],"tree_param":{"num_deleted":"0","num_feature":"3073","num_nodes":"31","size_leaf_vector":"1"}},{"base_weights":[9.672194E-3,-1.001204E0,9.4191396E-1,-5.2566268E-2,-4.8932645E-1,4.0562844E-1,1.1028876E0,4.2193387E-2,-8.7164617E-1,8.6720675E-1,-5.4224122E-2,5.873005E-3,1.1228986E0,-4.7681738E-2,-7.2655934E-3,9.6929824E-1,-7.969285E-3,7.565531E-1,-4.3925807E-1,5.673744E-2,5.6611425E-3,5.3285897E-2,-3.386746E-4,5.236542E-2,-5.652852E-3,-4.7242258E-2,2.453444E-2],"categories":[],"categories_nodes":[],"categories_segments":[],"categories_sizes":[],"default_left":[0,0,0,0,0,0,0,0,0,0,0,0,0,0,0,0,0,0,0,0,0,0,0,0,0,0,0],"id":37,"left_children":[1,3,5,-1,7,9,11,-1,13,15,17,-1,19,-1,-1,21,-1,23,25,-1,-1,-1,-1,-1,-1,-1,-1],"loss_changes":[1.8848488E2,1.9475555E0,8.534729E0,0E0,6.0512776E0,5.481364E0,1.4346848E0,0E0,3.7336683E-1,1.4998026E0,4.6298695E0,0E0,8.017349E-1,0E0,0E0,1.1192799E0,0E0,1.3320332E0,5.1495566E0,0E0,0E0,0E0,0E0,0E0,0E0,0E0,0E0],"parents":[2147483647,0,0,1,1,2,2,4,4,5,5,6,6,8,8,9,9,10,10,12,12,15,15,17,17,18,18],"right_children":[2,4,6,-1,8,10,12,-1,14,16,18,-1,20,-1,-1,22,-1,24,26,-1,-1,-1,-1,-1,-1,-1,-1],"split_conditions":[3.5693714E-1,9.587931E-2,8.8011956E-1,-5.2566268E-2,1.9215687E-1,4.9411765E-1,1.2156863E-1,4.2193387E-2,6.2352943E-1,7.2156864E-1,4.6666667E-1,5.873005E-3,8.745098E-1,-4.7681738E-2,-7.2655934E-3,5.9607846E-1,-7.969285E-3,5.019608E-1,6.039216E-1,5.673744E-2,5.6611425E-3,5.3285897E-2,-3.386746E-4,5.236542E-2,-5.652852E-3,-4.7242258E-2,2.453444E-2],"split_indices":[3072,3072,3072,0,2270,2698,2025,0,2975,2287,1600,0,535,0,0,383,0,1698,1696,0,0,0,0,0,0,0,0],"split_type":[0,0,0,0,0,0,0,0,0,0,0,0,0,0,0,0,0,0,0,0,0,0,0,0,0,0,0],"sum_hessian":[1.980085E2,9.496224E1,1.0304626E2,8.553326E1,9.428989E0,2.460253E1,7.844373E1,1.8323027E0,7.596687E0,1.1836138E1,1.2766392E1,1.6979692E0,7.674576E1,6.5449514E0,1.0517354E0,1.0816299E1,1.0198385E0,3.7999103E0,8.966481E0,7.573304E1,1.0127237E0,9.7603E0,1.0559998E0,2.6946187E0,1.1052916E0,5.798158E0,3.1683233E0],"tree_param":{"num_deleted":"0","num_feature":"3073","num_nodes":"27","size_leaf_vector":"1"}},{"base_weights":[4.8987125E-3,-9.8537755E-1,9.318985E-1,-1.0274678E0,-3.0153447E-1,3.6877552E-1,1.1051193E0,-1.376651E-1,-5.2424747E-2,4.524073E-2,-7.6789695E-1,9.2138255E-1,8.997497E-2,-4.57341E-3,5.6314398E-2,-2.941686E-2,2.1070143E-2,-4.4308744E-2,-5.9850775E-3,5.4221816E-2,1.0980624E-2,-9.101993E-1,3.10106E-1,-3.7555315E-3,-6.263932E-2,2.6253475E-2,-3.916567E-2],"categories":[],"categories_nodes":[],"categories_segments":[],"categories_sizes":[],"default_left":[0,0,0,0,0,0,0,0,0,0,0,0,0,0,0,0,0,0,0,0,0,0,0,0,0,0,0],"id":38,"left_children":[1,3,5,7,9,11,13,15,-1,-1,17,19,21,-1,-1,-1,-1,-1,-1,-1,-1,23,25,-1,-1,-1,-1],"loss_changes":[1.7773984E2,2.384781E0,9.347122E0,1.4979019E0,4.544866E0,3.772745E0,2.0274963E0,1.0485046E0,0E0,0E0,3.1377864E-1,7.097287E-1,4.188492E0,0E0,0E0,0E0,0E0,0E0,0E0,0E0,0E0,8.942292E-1,4.004513E0,0E0,0E0,0E0,0E0],"parents":[2147483647,0,0,1,1,2,2,3,3,4,4,5,5,6,6,7,7,10,10,11,11,12,12,21,21,22,22],"right_children":[2,4,6,8,10,12,14,16,-1,-1,18,20,22,-1,-1,-1,-1,-1,-1,-1,-1,24,26,-1,-1,-1,-1],"split_conditions":[3.5693714E-1,2.0516513E-1,8.8011956E-1,1.1764706E-2,1.5294118E-1,3.7254903E-1,1.1372549E-1,5.529412E-1,-5.2424747E-2,4.524073E-2,7.3333335E-1,3.7254903E-1,3.8039216E-1,-4.57341E-3,5.6314398E-2,-2.941686E-2,2.1070143E-2,-4.4308744E-2,-5.9850775E-3,5.4221816E-2,1.0980624E-2,4.6666667E-1,7.529412E-1,-3.7555315E-3,-6.263932E-2,2.6253475E-2,-3.916567E-2],"split_indices":[3072,3072,3072,314,1837,20,1833,1843,0,0,1203,62,200,0,0,0,0,0,0,0,0,2121,1381,0,0,0,0],"split_type":[0,0,0,0,0,0,0,0,0,0,0,0,0,0,0,0,0,0,0,0,0,0,0,0,0,0,0],"sum_hessian":[1.9161906E2,9.261705E1,9.900201E1,8.677366E1,5.8433867E0,2.4025753E1,7.497626E1,2.1774466E0,8.4596214E1,1.3670524E0,4.476334E0,7.2838054E0,1.6741947E1,1.2455976E0,7.373066E1,1.1766111E0,1.0008354E0,3.475085E0,1.0012493E0,5.468039E0,1.8157663E0,2.454594E0,1.42873535E1,1.0687234E0,1.3858703E0,1.2374374E1,1.9129794E0],"tree_param":{"num_deleted":"0","num_feature":"3073","num_nodes":"27","size_leaf_vector":"1"}},{"base_weights":[2.9726308E-3,-9.9606997E-1,9.015993E-1,3.2941364E-3,-1.0137539E0,2.4585304E-1,1.0642011E0,-5.1662844E-2,-4.838448E-1,4.221004E-1,-4.1053575E-2,-3.8913288E-3,1.0869172E0,-3.5198662E-2,9.272619E-3,5.3908765E-2,1.7821343E-1,-2.3443259E-3,1.10878E0,-2.2929696E-2,2.8792465E-2,5.6061536E-2,5.479485E-3],"categories":[],"categories_nodes":[],"categories_segments":[],"categories_sizes":[],"default_left":[0,0,0,0,0,0,0,0,0,0,0,0,0,0,0,0,0,0,0,0,0,0,0],"id":39,"left_children":[1,3,5,-1,7,9,11,-1,13,15,-1,-1,17,-1,-1,-1,19,-1,21,-1,-1,-1,-1],"loss_changes":[1.6565988E2,1.7077789E0,1.0096245E1,0E0,3.889618E-1,4.220664E0,2.0961685E0,0E0,8.574673E-1,2.742696E0,0E0,0E0,1.9382324E0,0E0,0E0,0E0,3.953276E0,0E0,8.063965E-1,0E0,0E0,0E0,0E0],"parents":[2147483647,0,0,1,1,2,2,4,4,5,5,6,6,8,8,9,9,12,12,16,16,18,18],"right_children":[2,4,6,-1,8,10,12,-1,14,16,-1,-1,18,-1,-1,-1,20,-1,22,-1,-1,-1,-1],"split_conditions":[3.1251493E-1,1.1764706E-2,8.20247E-1,3.2941364E-3,2.0516513E-1,8.352941E-1,9.411765E-2,-5.1662844E-2,6.627451E-1,2.3529412E-1,-4.1053575E-2,-3.8913288E-3,1.8039216E-1,-3.5198662E-2,9.272619E-3,5.3908765E-2,4.9019608E-1,-2.3443259E-3,9.764706E-1,-2.2929696E-2,2.8792465E-2,5.6061536E-2,5.479485E-3],"split_indices":[3072,404,3072,0,3072,1291,1175,0,2124,38,0,0,2860,0,0,0,2329,0,1709,0,0,0,0],"split_type":[0,0,0,0,0,0,0,0,0,0,0,0,0,0,0,0,0,0,0,0,0,0,0],"sum_hessian":[1.8252417E2,8.638157E1,9.61426E1,1.3702487E0,8.5011314E1,1.9602186E1,7.654041E1,8.1077446E1,3.9338694E0,1.7341831E1,2.2603545E0,1.445462E0,7.5094955E1,2.921269E0,1.0126003E0,3.7725575E0,1.3569274E1,1.3989837E0,7.369597E1,5.157047E0,8.412228E0,7.266832E1,1.0276498E0],"tree_param":{"num_deleted":"0","num_feature":"3073","num_nodes":"23","size_leaf_vector":"1"}},{"base_weights":[-1.9418133E-2,-9.1183317E-1,9.663152E-1,-1.018544E0,-1.9888332E-1,4.408932E-1,1.0979383E0,-3.079565E-3,-5.1490285E-2,4.0094882E-2,-4.966602E-1,6.864043E-1,-7.3414075E-1,8.1130145E-3,5.5490572E-2,-8.8445985E-1,2.82043E-1,8.488788E-1,-2.5461672E-2,-6.0625374E-2,7.4442825E-3,3.9100304E-4,-5.1093906E-2,-3.2754872E-2,4.543619E-2,5.12232E-2,-1.848445E-2],"categories":[],"categories_nodes":[],"categories_segments":[],"categories_sizes":[],"default_left":[0,0,0,0,0,0,0,0,0,0,0,0,0,0,0,0,0,0,0,0,0,0,0,0,0,0,0],"id":40,"left_children":[1,3,5,7,9,11,13,-1,-1,-1,15,17,19,-1,-1,21,23,25,-1,-1,-1,-1,-1,-1,-1,-1,-1],"loss_changes":[1.5668245E2,6.908554E0,5.369499E0,8.101425E-1,4.394989E0,5.8774414E0,5.64415E-1,0E0,0E0,0E0,3.5572033E0,3.5257487E0,1.7444745E0,0E0,0E0,9.3420887E-1,3.1791732E0,3.4585562E0,0E0,0E0,0E0,0E0,0E0,0E0,0E0,0E0,0E0],"parents":[2147483647,0,0,1,1,2,2,3,3,4,4,5,5,6,6,10,10,11,11,12,12,15,15,16,16,17,17],"right_children":[2,4,6,8,10,12,14,-1,-1,-1,16,18,20,-1,-1,22,24,26,-1,-1,-1,-1,-1,-1,-1,-1,-1],"split_conditions":[5.7373416E-1,2.0516513E-1,8.9884984E-1,3.9215688E-2,2.627451E-1,6.4705884E-1,7.058824E-2,-3.079565E-3,-5.1490285E-2,4.0094882E-2,6.8235296E-1,7.3333335E-1,6.666667E-1,8.1130145E-3,5.5490572E-2,2.4313726E-1,5.0980395E-1,6.9803923E-1,-2.5461672E-2,-6.0625374E-2,7.4442825E-3,3.9100304E-4,-5.1093906E-2,-3.2754872E-2,4.543619E-2,5.12232E-2,-1.848445E-2],"split_indices":[3072,3072,3072,88,975,3013,1554,0,0,0,2427,2672,2731,0,0,2532,81,181,0,0,0,0,0,0,0,0,0],"split_type":[0,0,0,0,0,0,0,0,0,0,0,0,0,0,0,0,0,0,0,0,0,0,0,0,0,0,0],"sum_hessian":[1.7611073E2,9.2469864E1,8.364088E1,8.005848E1,1.2411383E1,1.7626776E1,6.60141E1,1.0064431E0,7.905203E1,2.4578822E0,9.953501E0,1.49243355E1,2.7024412E0,1.0109495E0,6.500315E1,6.553834E0,3.3996663E0,1.3394222E1,1.5301129E0,1.5108392E0,1.191602E0,1.0005015E0,5.5533323E0,1.3442004E0,2.0554662E0,1.1846527E1,1.5476949E0],"tree_param":{"num_deleted":"0","num_feature":"3073","num_nodes":"27","size_leaf_vector":"1"}},{"base_weights":[-8.057828E-3,1.4528348E-1,-7.4396515E-1,-4.5887637E-1,2.8103897E-1,-3.9934775E-1,-9.627309E-1,4.2247474E-1,-5.67353E-1,3.995818E-1,-4.1269195E-1,4.6206057E-2,-4.4328753E-2,-4.9363177E-2,-1.428394E-2,4.0762357E-2,-1.3461358E-2,-7.042555E-1,2.8258565E-1,-4.1760135E-1,5.232091E-1,-4.849352E-2,-8.6595565E-1,-3.059919E-2,3.901668E-1,-4.3849315E-2,-9.278176E-3,-2.7130822E-2,3.802149E-2,1.15503175E-2,-3.2944832E-2,-2.9919434E-2,2.877748E-2,1.6445803E-2,-3.7649624E-2,-4.0316135E-3,-4.8770834E-2,3.8062423E-2,-1.6746435E-2],"categories":[],"categories_nodes":[],"categories_segments":[],"categories_sizes":[],"default_left":[0,0,0,0,0,0,0,0,0,0,0,0,0,0,0,0,0,0,0,0,0,0,0,0,0,0,0,0,0,0,0,0,0,0,0,0,0,0,0],"id":41,"left_children":[1,3,5,7,9,11,13,15,17,19,21,23,-1,-1,-1,-1,-1,25,27,29,31,33,35,-1,37,-1,-1,-1,-1,-1,-1,-1,-1,-1,-1,-1,-1,-1,-1],"loss_changes":[1.924268E1,1.170681E1,1.8322487E0,2.7521687E0,9.694734E0,2.8904939E0,4.924774E-3,1.1576539E0,2.9714088E0,1.026847E1,2.8309903E0,2.0061724E0,0E0,0E0,0E0,0E0,0E0,1.7014713E0,1.9973934E0,2.285099E0,5.442972E0,3.0951161E0,5.827842E-1,0E0,1.7988887E0,0E0,0E0,0E0,0E0,0E0,0E0,0E0,0E0,0E0,0E0,0E0,0E0,0E0,0E0],"parents":[2147483647,0,0,1,1,2,2,3,3,4,4,5,5,6,6,7,7,8,8,9,9,10,10,11,11,17,17,18,18,19,19,20,20,21,21,22,22,24,24],"right_children":[2,4,6,8,10,12,14,16,18,20,22,24,-1,-1,-1,-1,-1,26,28,30,32,34,36,-1,38,-1,-1,-1,-1,-1,-1,-1,-1,-1,-1,-1,-1,-1,-1],"split_conditions":[7.8431374E-1,3.019608E-1,6.54902E-1,1.3333334E-1,7.529412E-1,6.392157E-1,9.2941177E-1,1.764706E-1,8.156863E-1,2.4705882E-1,6.156863E-1,3.2941177E-1,-4.4328753E-2,-4.9363177E-2,-1.428394E-2,4.0762357E-2,-1.3461358E-2,3.4509805E-1,3.6078432E-1,2.8235295E-1,1.882353E-1,8.392157E-1,3.7254903E-1,-3.059919E-2,4.7843137E-1,-4.3849315E-2,-9.278176E-3,-2.7130822E-2,3.802149E-2,1.15503175E-2,-3.2944832E-2,-2.9919434E-2,2.877748E-2,1.6445803E-2,-3.7649624E-2,-4.0316135E-3,-4.8770834E-2,3.8062423E-2,-1.6746435E-2],"split_indices":[654,553,2604,2,2191,2451,455,2210,2780,1784,2728,2743,0,0,0,0,0,944,2624,44,2703,415,1233,0,488,0,0,0,0,0,0,0,0,0,0,0,0,0,0],"split_type":[0,0,0,0,0,0,0,0,0,0,0,0,0,0,0,0,0,0,0,0,0,0,0,0,0,0,0,0,0,0,0,0,0,0,0,0,0,0,0],"sum_hessian":[1.685653E2,1.4016223E2,2.8403082E1,2.5279476E1,1.1488275E2,1.2126268E1,1.6276814E1,2.4531894E0,2.2826286E1,9.847895E1,1.6403801E1,6.8068166E0,5.3194513E0,1.5265497E1,1.0113164E0,1.450777E0,1.0024122E0,1.9807268E1,3.0190198E0,1.2628172E1,8.5850784E1,9.709324E0,6.6944766E0,2.0688055E0,4.7380114E0,1.434083E1,5.4664373E0,1.0574058E0,1.9616139E0,3.4356635E0,9.192509E0,3.3625467E0,8.2488235E1,6.6695023E0,3.0398216E0,1.0313963E0,5.6630807E0,3.1011024E0,1.6369089E0],"tree_param":{"num_deleted":"0","num_feature":"3073","num_nodes":"39","size_leaf_vector":"1"}},{"base_weights":[-2.5654797E-2,-9.653565E-1,8.745266E-1,-1.0126704E0,-2.4953371E-1,2.441216E-1,1.0497373E0,-1.0316748E-3,-5.1843252E-2,4.0848475E-2,-6.315055E-1,5.6562364E-1,-3.9496765E-1,-1.2341234E-2,1.0751504E0,-4.3005377E-2,8.006598E-3,-8.64266E-2,8.8678753E-1,3.4138184E-2,-7.552998E-1,1.0889789E0,5.165776E-3,3.823751E-2,-3.0929813E-2,5.0801516E-2,1.508681E-3,1.0284335E-2,-5.1447827E-2,6.3279793E-3,5.5108618E-2],"categories":[],"categories_nodes":[],"categories_segments":[],"categories_sizes":[],"default_left":[0,0,0,0,0,0,0,0,0,0,0,0,0,0,0,0,0,0,0,0,0,0,0,0,0,0,0,0,0,0,0],"id":42,"left_children":[1,3,5,7,9,11,13,-1,-1,-1,15,17,19,-1,21,-1,-1,23,25,-1,27,29,-1,-1,-1,-1,-1,-1,-1,-1,-1],"loss_changes":[1.4157568E2,2.5202026E0,9.1870575E0,1.8140182E0,3.1243525E0,4.311652E0,2.459755E0,0E0,0E0,0E0,1.0929873E0,2.934936E0,3.3304904E0,0E0,7.6781464E-1,0E0,0E0,2.9260836E0,9.916005E-1,0E0,1.7650316E0,6.792755E-1,0E0,0E0,0E0,0E0,0E0,0E0,0E0,0E0,0E0],"parents":[2147483647,0,0,1,1,2,2,3,3,4,4,5,5,6,6,10,10,11,11,12,12,14,14,17,17,18,18,20,20,21,21],"right_children":[2,4,6,8,10,12,14,-1,-1,-1,16,18,20,-1,22,-1,-1,24,26,-1,28,30,-1,-1,-1,-1,-1,-1,-1,-1,-1],"split_conditions":[3.5693714E-1,2.0516513E-1,8.20247E-1,1.1764706E-2,1.2941177E-1,6.039216E-1,1.254902E-1,-1.0316748E-3,-5.1843252E-2,4.0848475E-2,6.9411767E-1,4.7058824E-1,4.3529412E-1,-1.2341234E-2,8.901961E-1,-4.3005377E-2,8.006598E-3,3.3333334E-1,7.7254903E-1,3.4138184E-2,4.0392157E-1,2.745098E-2,5.165776E-3,3.823751E-2,-3.0929813E-2,5.0801516E-2,1.508681E-3,1.0284335E-2,-5.1447827E-2,6.3279793E-3,5.5108618E-2],"split_indices":[3072,3072,3072,314,1642,2545,1999,0,0,0,1830,1527,312,0,535,0,0,2064,408,0,521,2055,0,0,0,0,0,0,0,0,0],"split_type":[0,0,0,0,0,0,0,0,0,0,0,0,0,0,0,0,0,0,0,0,0,0,0,0,0,0,0,0,0,0,0],"sum_hessian":[1.6536848E2,8.087278E1,8.449571E1,7.546974E1,5.4030375E0,1.8897207E1,6.55985E1,1.8408991E0,7.3628845E1,1.1245E0,4.2785378E0,1.2648947E1,6.2482615E0,1.0935456E0,6.450496E1,3.2527466E0,1.0257912E0,4.415392E0,8.233554E0,1.3413999E0,4.906862E0,6.3481125E1,1.0238295E0,1.5304606E0,2.8849316E0,6.9924574E0,1.2410967E0,1.1426504E0,3.7642114E0,1.0017242E0,6.24794E1],"tree_param":{"num_deleted":"0","num_feature":"3073","num_nodes":"31","size_leaf_vector":"1"}},{"base_weights":[7.958474E-3,-9.3854713E-1,8.6631656E-1,-1.0186298E0,-3.0725047E-1,2.8523162E-1,1.0290289E0,-1.5673108E-2,